5691 50
</s> 0.008005 0.008839 -0.007661 -0.006556 0.002733 0.006042 0.001882 0.000423 -0.007207 0.004437 -0.008713 0.002499 -0.001503 -0.001914 -0.006631 -0.003764 0.005159 0.006051 0.005938 0.003195 0.003090 -0.007605 -0.008192 0.009939 0.007603 0.006180 -0.001208 0.008031 -0.000990 0.001469 -0.000298 -0.005966 0.002625 -0.002675 -0.007651 0.009508 0.008759 -0.002190 -0.000452 0.001018 -0.007275 -0.008014 0.009109 0.000126 -0.005165 -0.006084 -0.006153 0.003394 0.000403 0.002662 
， -0.263203 0.202561 -0.098058 -0.147437 -0.018603 0.249196 -0.316056 -0.058074 -0.002832 0.184581 -0.052872 0.146569 0.262632 0.204816 0.212785 -0.427375 0.014157 0.357606 -0.136213 0.044800 -0.237855 -0.054042 -0.095540 -0.176686 0.054251 -0.251663 -0.052703 -0.166818 -0.153659 -0.015016 -0.230495 -0.000237 -0.253502 -0.155886 -0.054320 -0.274134 0.130677 0.168934 0.091716 -0.291436 0.052107 0.087789 -0.237131 0.118082 -0.048432 -0.066804 -0.076622 -0.073912 -0.175311 -0.304330 
的 -0.065377 0.130867 -0.337615 -0.100378 -0.023541 0.227328 -0.041110 -0.127668 -0.092025 0.146266 -0.060508 -0.059612 0.055096 0.285792 0.107078 -0.240539 -0.285359 0.282981 0.138486 -0.120807 -0.262704 0.156047 -0.238320 -0.157534 0.140352 -0.284699 0.121906 -0.303086 -0.343437 0.126466 0.355879 0.258762 -0.037134 0.007232 -0.135956 -0.025951 -0.137378 0.171006 0.377815 -0.193996 0.039363 -0.220016 -0.325431 -0.029116 -0.020684 -0.121619 0.223278 0.048421 0.295351 0.077253 
。 -0.055582 0.125688 -0.114032 -0.048237 -0.052370 -0.038568 -0.254117 -0.148710 -0.065850 0.200845 -0.106276 0.231443 0.212629 -0.124246 0.264907 -0.211268 0.094584 0.492771 -0.174371 -0.012292 -0.116243 -0.096493 -0.123255 0.014392 0.188342 -0.237540 -0.144622 -0.237781 -0.153688 0.047890 -0.105829 -0.101995 -0.241926 -0.099638 0.057366 -0.039893 -0.135692 0.144023 0.081227 -0.128933 0.025540 -0.007676 -0.272611 0.232334 -0.106772 0.177160 0.025737 0.071461 -0.102044 -0.063668 
一 -0.193212 0.390870 -0.389179 0.186775 -0.286542 0.133148 -0.271031 0.026007 -0.015918 0.407266 0.170823 0.559966 0.447681 0.333763 0.154813 -0.139991 0.012851 0.272118 -0.033757 -0.017025 -0.183621 0.373935 -0.311354 -0.143082 0.252733 -0.266091 -0.119164 -0.236864 -0.377941 0.468849 0.624622 -0.099314 -0.210263 -0.100884 -0.306011 -0.154151 0.013512 -0.309072 0.099031 -0.554525 -0.279724 0.120402 0.088654 -0.508430 -0.245702 -0.003052 0.035035 -0.027053 -0.152584 -0.522005 
、 0.049712 -0.208574 0.134574 -0.299580 0.454130 -0.188904 0.516811 -0.059108 0.033777 -0.372264 -0.031593 -0.011186 0.447080 -0.215798 0.006373 0.445840 -0.600673 -0.463523 0.279932 -0.566618 0.567871 -0.488109 -0.187011 0.771785 -0.367425 0.795709 -0.036839 0.072286 0.653968 0.244617 0.512623 0.352920 0.101837 -0.040641 -0.026113 -0.195522 -0.008927 -0.238095 0.381356 0.950710 0.076294 -0.735982 0.110341 -0.003567 0.291525 -0.616654 -0.682104 -0.368184 0.539865 1.114085 
1 -0.288213 -0.380836 -0.137315 -0.171383 -0.891534 -0.419790 -0.223561 1.001889 1.094413 -0.803215 -0.749842 0.571215 0.605122 -0.541978 -1.099545 0.214338 2.531311 -0.211855 -0.490513 1.466215 0.424120 -0.343133 -0.000517 1.126440 -0.120239 0.395058 -0.476830 0.163123 0.693568 -0.226771 -0.424259 -0.173418 0.394231 -0.618084 -0.694939 -0.150706 0.257904 0.968212 -0.283762 -0.356416 -0.081352 1.037501 -0.103940 0.595540 0.846855 -0.370386 -0.747932 -0.191394 0.214185 0.249095 
人 0.411147 0.221663 0.373099 0.006965 0.309197 0.028380 0.162461 0.018230 0.066123 -0.270483 -0.245048 0.107538 0.083978 0.061901 0.208634 -0.595648 0.056108 0.435359 0.356815 -0.408666 0.154501 0.342689 0.268809 0.454617 0.324226 -0.335812 -0.233302 -0.503560 -0.296865 -0.273926 -0.301271 -0.268263 -0.271076 0.356668 0.122042 -0.257730 -0.514923 0.453971 0.118226 -0.535202 -0.318092 -0.003781 -0.380729 0.083914 0.447075 -0.364541 -0.216586 -0.050452 -0.472937 -0.397256 
在 -0.195137 -0.100549 -0.360426 0.093783 -0.375604 0.126787 -0.732818 0.041387 0.175370 0.250603 0.046660 0.028935 0.316144 0.455592 -0.067792 0.192595 0.077627 0.398402 0.239843 -0.015029 -0.120403 -0.076337 0.134633 -0.061665 0.290063 -0.092889 -0.216741 -0.117824 -0.513629 -0.094255 -0.037786 0.188938 0.065782 -0.114927 -0.284206 -0.146162 -0.003172 -0.252682 -0.110661 -0.380139 0.037108 -0.162888 0.003678 0.254639 -0.130381 -0.061611 -0.352458 -0.084397 -0.209765 -0.256347 
0 -0.554508 -0.479886 -0.136057 0.176648 -0.259682 -0.451634 0.042669 0.446498 1.421117 -0.553458 -0.191520 0.902283 0.734195 -0.072953 -0.776799 -0.163052 2.245838 0.001489 -0.894972 1.663321 0.022680 0.170668 -0.081778 1.126009 -0.393069 0.251955 -0.291185 0.058172 0.774091 -0.119303 -0.254281 -0.146494 0.040076 -0.515789 -1.145326 0.132204 -0.082153 0.910751 0.161050 0.174571 -0.680431 1.481645 -0.644130 0.228349 1.008062 -0.352579 -0.712618 0.234206 0.522015 -0.005702 
是 0.489588 0.197923 -0.266474 0.078290 -0.319037 0.281334 -0.590437 -0.240883 -0.173864 0.670621 0.168769 0.383971 -0.175883 -0.009526 0.181265 -0.856784 -0.365001 0.352205 0.398041 -0.334763 -0.583997 0.179283 -0.225556 -0.419869 0.096259 -0.453175 0.208178 -0.345818 -0.418471 -0.329789 0.239104 0.248991 -0.192928 -0.109902 -0.067626 0.409782 -0.201770 0.221140 0.059831 -0.465573 -0.161155 0.235335 -0.733303 -0.641152 -0.518968 0.212826 0.488830 -0.136165 -0.172636 -0.208513 
“ 0.314659 -0.005259 -0.114782 -0.318263 -0.339989 0.037828 -0.208931 0.038300 -0.454878 0.208516 0.293716 0.315409 0.265676 0.117526 -0.044168 0.128805 -0.501475 0.209434 0.136843 -0.009322 0.162289 0.286912 -0.142418 -0.168776 -0.263637 -0.792814 -0.148073 -0.368132 -0.376706 0.094332 0.499123 0.373374 -0.336262 0.048606 0.082234 0.228166 0.033841 -0.113232 -0.363364 -0.315531 -0.055388 0.288120 0.044830 -0.738125 0.111036 0.471801 -0.051388 -0.373723 -0.325289 0.162488 
” 0.268799 0.158457 0.132217 -0.343851 -0.236640 -0.048034 -0.107951 -0.003241 -0.262841 0.105737 -0.047351 0.320568 0.222229 -0.185842 0.039116 0.194788 -0.416785 0.203796 0.270274 -0.015389 0.375069 0.260427 -0.034125 -0.078776 -0.048928 -0.577396 0.051657 -0.269547 -0.118660 0.121734 0.647634 0.445498 -0.201466 0.097756 0.138787 0.399384 -0.084600 0.020090 -0.177496 -0.083761 -0.113651 0.314997 0.164779 -0.577999 0.006399 0.689550 -0.004667 -0.056885 -0.364261 0.426699 
了 -0.556126 0.273068 0.084682 -0.169165 -0.377949 0.060219 -0.418891 -0.210719 -0.148894 0.538922 -0.046619 0.567540 0.348120 0.584454 0.063386 -0.238865 0.074217 0.243594 -0.095745 0.164445 0.083562 0.137186 -0.019036 -0.253756 0.264940 -0.473934 -0.108401 -0.055462 -0.518053 0.136035 0.146091 -0.312683 -0.373879 -0.218651 -0.290928 0.004428 0.071106 0.138075 -0.211780 0.092766 0.098416 0.259153 0.027927 -0.082148 -0.022425 0.442858 -0.039701 -0.135908 -0.740320 -0.474131 
有 0.043198 0.224068 0.050297 -0.238295 0.299627 0.566352 -0.653390 -0.224671 0.158057 0.058275 0.106688 0.237647 0.060751 0.129227 -0.103012 -0.602163 0.002388 0.615144 0.340970 -0.498260 -0.385737 0.307220 -0.218303 -0.267591 -0.094165 -0.051397 0.368400 -0.135977 -0.929497 -0.089312 -0.356418 0.343821 -0.127653 -0.305361 0.279263 0.302715 -0.375499 0.681559 0.320104 -0.063728 -0.095608 -0.122037 -0.942938 -0.442696 -0.096048 0.449632 0.328525 0.145666 -0.385509 -0.627008 
不 0.284425 0.266156 -0.249839 -0.063400 -0.085978 0.746022 -0.311754 -0.673276 -0.006099 0.377052 0.129001 0.587146 0.175150 0.373352 0.607616 -1.006931 -0.499475 0.559617 0.518554 -0.499920 -0.583051 0.033624 0.004615 -0.839619 -0.290231 -0.698561 0.023080 -0.265672 -0.358025 -0.099620 -0.323845 0.211501 -0.400138 0.011623 0.311256 0.043285 -0.004112 0.029746 -0.245814 0.256856 -0.084974 0.223789 -1.176667 0.075506 -0.386867 0.785445 0.492060 -0.193492 -0.724396 -0.127457 
中 -0.634685 -0.306660 -0.094251 0.321417 0.149273 -0.292638 -0.113359 0.771830 -0.350436 0.210600 -0.116662 -0.490395 -0.142052 -0.274723 0.034241 0.118485 -0.005226 0.009824 0.433349 -0.064025 0.008393 -0.320207 0.144465 0.468258 0.108255 0.093941 -0.007851 -0.106219 -0.090349 0.722400 0.396549 -0.025925 -0.252147 -0.046106 -0.237374 -0.133432 0.074357 0.198807 0.192033 -0.205987 0.174075 -0.280707 -0.320610 0.033882 0.526547 -0.380831 -0.442548 0.250484 0.155525 -0.109170 
年 -0.562935 -0.002027 -0.542866 0.270989 -0.718119 -0.496031 -0.645596 0.382165 0.653076 -0.522914 -0.087231 0.590795 -0.084995 -0.843563 -0.510423 -0.348298 1.415821 0.821279 -0.349553 0.456495 -0.362214 0.286810 0.063276 0.164770 0.095729 0.123851 0.088406 0.431472 0.371378 0.572278 -0.006657 0.101304 -0.606000 -1.116397 -1.588350 -0.467363 0.276370 0.972726 -0.633567 -1.028164 0.178692 0.864408 -0.348831 0.635290 0.803632 -0.374754 -0.015093 -0.230063 0.133652 -0.019363 
2 -0.471239 -0.400556 -0.151539 0.042380 -0.642327 -0.324405 -0.106665 0.881275 1.173452 -0.795900 -0.670063 0.771683 0.622846 -0.365258 -0.946592 0.174632 2.273224 0.064552 -0.644108 1.575438 0.168428 -0.134880 -0.144123 0.861513 -0.115920 0.399035 -0.270000 0.306091 0.740800 -0.216919 -0.148613 -0.208017 0.255057 -0.618110 -0.909850 -0.052118 0.267698 0.747425 -0.323171 -0.213426 -0.260846 1.072315 -0.254354 0.665111 0.924917 -0.366906 -0.730925 0.191491 0.538924 0.214803 
大 -0.169133 0.139806 0.083221 0.504404 0.237248 -0.042293 -0.035986 0.535966 -0.206786 0.340251 -0.064902 -0.292225 0.139385 0.018068 0.208306 0.166144 -0.387716 0.583978 0.381079 -0.306074 0.056999 -0.171054 0.231756 0.119049 0.018036 -0.041053 -0.236071 -0.126928 -0.013528 0.591106 0.681700 0.142330 -0.276898 -0.112211 -0.740962 0.012364 -0.202446 0.552780 -0.124335 0.086570 -0.263224 0.238138 -0.150217 -0.333105 0.237275 -0.557974 -0.017335 0.096103 0.361234 0.065983 
国 -0.008534 -0.876280 -0.316809 0.518217 -0.308263 -0.292112 -0.602935 1.118282 0.167155 0.349827 0.389279 -1.578755 -0.465324 -0.292697 -0.180806 0.255254 -0.044328 -0.693591 1.282437 -0.758843 -0.625539 -1.063357 0.127540 0.155025 -0.249420 0.053820 0.544587 0.107563 0.073222 0.612486 0.451957 -0.072555 0.027192 -0.398229 0.124528 0.138164 -0.122288 0.773035 0.704952 -0.620873 -0.603177 0.453660 -0.028628 -0.045304 0.970821 -0.761489 0.232664 0.200228 0.350991 0.323350 
上 -0.258903 0.351430 -0.392365 -0.298080 -0.445812 0.246224 -0.504115 -0.078470 0.200911 -0.446503 -0.281251 0.244859 0.417836 0.288549 0.344937 0.277315 0.334669 0.113804 0.058032 0.276787 0.099194 -0.016326 -0.077248 -0.350643 0.241684 -0.287713 -0.395601 0.230386 -0.391385 0.024592 0.061858 0.111291 0.019582 0.161581 -0.349067 -0.311487 0.300438 -0.037511 -0.130325 -0.380838 -0.024294 0.176480 0.046565 -0.245692 -0.247126 -0.148459 -0.526633 0.049858 -0.098098 -0.710421 
为 0.158840 -0.426189 -0.014316 -0.100770 0.122764 0.265934 -0.271210 0.074287 -0.138349 0.172656 -0.014274 0.251386 0.039507 -0.065976 -0.080311 -0.837492 -0.214249 -0.076220 0.270978 0.002041 -0.279034 0.020593 -0.015143 0.192440 0.128735 -0.328591 0.163467 -0.324805 0.331754 0.065697 0.310609 0.270888 -0.130848 -0.179699 0.155493 0.282518 0.053248 0.197433 0.316948 -0.149674 -0.274041 -0.019593 -0.376093 0.011198 0.088101 -0.109668 0.255266 -0.014330 0.070946 0.237752 
和 -0.113177 -0.102119 -0.009144 -0.088477 0.213159 0.140887 0.120200 0.174411 0.049052 0.213939 -0.099392 -0.091577 0.258323 0.100966 -0.011160 -0.330158 -0.602946 -0.142582 0.291063 -0.562182 0.313810 -0.238196 -0.271848 0.211524 0.087398 0.316345 0.341038 -0.350182 0.245592 0.182445 0.563038 0.175084 0.193592 0.198546 0.342612 -0.212401 -0.219563 -0.024221 0.357912 0.222619 0.126520 -0.681332 -0.131313 0.207341 0.574785 -0.577358 -0.149899 0.106412 0.285279 0.330461 
会 -0.843073 -0.593748 -0.164318 0.658235 0.682049 -0.137731 -0.448049 -0.225667 -0.120423 0.997421 -0.455151 0.119353 0.135140 -0.590746 0.807000 -0.252117 0.108900 0.136382 0.624515 -1.202199 0.117903 -0.294638 0.518093 0.375254 0.470271 0.389196 1.309394 -0.061549 -0.969931 0.407434 0.788416 -0.522321 0.458050 -0.533103 0.323630 -0.707256 -0.154116 0.607752 -1.128464 -0.367659 0.275579 0.022662 0.061715 -0.107766 0.526929 -0.064971 0.020101 -0.125156 -0.373998 0.057750 
到 -0.414713 0.677441 0.288603 -0.841108 -0.465093 -0.186359 -0.339441 -0.372484 0.069281 0.502570 -0.328780 0.509740 0.608003 0.426946 0.506782 -0.135754 0.293188 0.543637 -0.049196 0.352686 0.223097 0.294406 0.132526 0.106771 0.497421 -0.192475 -1.111933 -0.623587 -0.450521 -0.438612 -0.357062 -0.657625 -0.183122 -0.097943 -0.437835 -0.096518 -0.475414 -0.132369 -0.514718 -0.154995 -0.172909 0.195558 0.011081 0.195691 -0.485645 0.167218 -0.313296 0.258352 -0.539773 -0.634982 
时 -0.520852 -0.012563 -0.411252 -0.250786 -0.375462 0.411339 -0.627540 -0.303091 -0.009814 0.174992 0.057912 0.662098 0.646769 0.503865 -0.114759 0.027431 0.463752 0.755839 0.029638 0.468377 -0.195383 -0.087584 0.593255 -0.299610 0.071373 0.419942 -0.599564 -0.331603 -0.234136 -0.416800 -0.911061 0.040352 0.248964 0.274624 -0.154235 -0.590294 0.292130 0.162876 -0.246964 -0.888131 0.444572 0.278834 -0.346350 0.540330 -0.840000 0.384535 -0.140877 -0.198955 0.054357 -0.574950 
日 -0.921548 -0.177668 -0.592539 -0.259488 -1.812534 -0.631036 -0.816515 0.817961 0.137183 -0.799870 -0.567514 -0.615196 0.119003 -0.474909 -0.518381 0.390840 1.788728 0.030088 0.224234 1.302975 0.445720 -0.568788 1.032721 0.148831 0.233719 0.268908 -0.042667 0.258078 0.452997 -0.109452 -0.784097 -0.654214 0.407880 -0.247699 -0.127249 -0.197523 0.401859 0.817216 -0.472326 -1.005863 0.622307 0.407149 -0.195308 0.807134 0.466170 -0.121315 -0.935364 -0.526877 -0.764451 0.658390 
发 -0.601983 -0.175849 0.229342 0.096148 0.166212 0.300780 -0.977282 -0.558470 -0.134384 0.001307 -0.210352 -1.481357 -0.127650 0.583275 0.177640 0.398884 -0.149457 0.471547 -0.443594 0.222762 0.766436 -0.883299 -0.102031 0.139652 0.127681 -0.771621 0.268502 -0.041100 -0.275303 0.578516 0.447821 -0.007416 0.026359 -0.330666 -0.126725 -0.431573 0.606626 0.506249 0.356261 0.079357 0.577987 0.029288 0.244152 0.440137 0.665162 -0.100547 -0.233512 0.407897 0.304585 0.477848 
出 -0.361388 -0.169588 -0.021497 -0.117297 0.454810 0.294272 -0.446137 0.011039 -0.164309 0.156807 0.129654 0.369263 0.213048 0.309243 0.386723 0.047710 0.032709 -0.101210 0.242590 0.320149 -0.015923 -0.490272 0.076696 -0.258172 0.180646 -0.572075 -0.042698 -0.044287 -0.247521 0.051177 0.231986 0.117699 0.142303 0.246886 -0.094715 -0.680942 0.361704 -0.172606 -0.009469 -0.319519 -0.232362 0.338921 -0.037399 -0.020414 -0.169172 -0.001038 -0.018486 0.117383 -0.022078 -0.138928 
生 0.864893 0.345074 -0.232624 -0.186143 -0.237488 0.843992 -0.478281 -0.434078 -0.534117 0.507707 0.350899 0.128247 -0.435231 0.090602 0.378926 -0.331162 0.081789 -0.002054 -0.439779 0.177411 0.695263 0.175388 0.061729 0.494075 0.443170 0.431990 -0.046493 -1.215060 -0.156069 0.094965 0.122627 0.235351 -0.742503 0.297597 -0.446397 0.423230 -0.318388 0.120118 0.814366 0.118896 0.220005 -0.092585 0.199647 0.594920 0.323333 -0.076037 0.384580 0.040077 0.725440 0.579976 
这 -0.263105 0.295586 -0.002892 -0.174304 -0.299122 0.062989 -0.538207 -0.322664 -0.414679 0.700153 0.384842 0.490157 -0.157954 -0.177535 0.402421 -0.698322 -0.025174 0.429713 0.392201 -0.009882 -0.543982 0.741101 -0.324639 -0.257337 -0.046140 -0.500833 -0.214813 -0.322397 -1.200901 0.033143 0.170484 0.186103 -0.006062 -0.387551 0.210974 0.460022 -0.469590 -0.430660 0.120996 -0.578787 -0.489656 0.569711 -0.955993 -0.692139 -0.285950 0.658405 0.165311 0.293796 -0.325816 -0.359280 
个 0.111824 0.351937 -0.289706 0.041598 -0.385254 0.381080 -0.503354 0.075521 -0.062174 0.506558 0.546948 0.702678 0.435354 0.459373 -0.161077 -0.395150 0.533627 0.047517 -0.421715 -0.176382 -0.219014 0.670928 0.146553 0.049801 0.296380 -0.061835 -0.287582 -0.375186 -0.458065 0.307873 0.538967 0.508374 -0.032006 -0.169415 -0.854396 0.041454 -0.167358 0.135116 0.221464 -0.355135 -0.411864 0.375674 -0.148219 -0.776756 0.279081 0.031660 0.123802 -0.429468 0.130383 -0.965990 
行 -0.806786 0.443612 0.618130 0.024790 0.406659 -0.057200 -0.352111 0.055981 -0.024736 0.280718 0.261164 -0.249736 0.744585 -0.639673 -0.388230 0.761012 -0.084802 -0.146262 0.393278 -0.426299 -0.092033 -0.070130 -0.048867 0.140398 0.065737 -0.034833 0.325959 0.343127 0.798324 0.314733 -0.214417 -0.242884 0.006482 -0.416201 0.811032 -1.406692 1.392381 0.136867 0.032884 -0.087983 -0.347883 -1.188963 0.480361 0.354225 -0.460478 0.766734 -0.063876 -0.245627 1.185898 0.430276 
3 -0.443444 -0.093872 -0.399430 -0.135455 -0.314577 -0.263531 0.004370 0.716322 1.273833 -0.760174 -0.470163 0.950559 0.550099 -0.143956 -1.110190 0.018644 2.136001 0.018112 -0.559378 1.549529 0.067487 -0.074091 -0.002245 1.102156 -0.234554 0.288691 -0.493498 0.240301 0.526012 -0.081531 -0.076055 -0.028722 0.474357 -0.224324 -0.874226 0.021136 0.138767 0.576568 -0.188420 0.066794 -0.647046 1.022306 -0.261716 0.520711 0.936419 -0.460028 -0.619113 -0.066027 0.552556 0.041496 
对 0.222899 -0.138179 -0.069831 0.002355 0.259631 0.143974 -0.060356 0.178821 -0.565113 0.360115 -0.111440 -0.515151 0.430932 0.005694 0.530902 -0.392404 -0.481628 -0.120577 0.032525 -0.244660 -0.722442 -0.396529 0.024737 -0.002817 -0.153487 -0.502167 -0.006903 -0.481456 0.083087 0.210236 -0.304424 -0.043206 0.119222 0.060600 0.944485 -0.477630 -0.155527 -0.089109 0.106000 -0.492085 -0.026764 -0.232828 -0.404812 0.218131 0.261818 -0.192178 0.146174 0.149937 -0.070453 -0.065656 
要 0.432033 0.175773 -0.210129 -0.739775 0.715023 -0.310639 -0.322196 -1.027770 -0.054874 1.736393 0.001237 0.317847 0.794402 0.078101 0.194842 -1.505874 0.016462 -0.041745 0.357253 0.052363 -0.485092 -0.269187 -0.097957 -0.605547 -0.444167 0.048422 0.480549 -0.280739 -0.171017 0.109160 0.421156 0.019835 -0.314858 0.349539 0.395718 -0.947644 -0.170729 -0.235026 -0.279746 0.420165 0.303243 -0.627708 -0.436925 -0.183451 -0.062027 0.091651 0.524071 -0.120727 0.168927 -0.102800 
家 -0.230655 0.429112 -0.589238 0.059530 -0.383530 0.797398 -0.806441 -0.284964 -0.183073 0.378080 0.339422 0.253565 0.169163 0.475196 0.362862 -0.028069 -0.496736 0.209106 0.445549 -0.237152 0.295973 0.493460 0.430704 0.566692 0.487202 0.244495 0.009439 -0.401161 -0.588550 -0.359285 -0.108234 -0.670587 -0.913527 0.411228 -0.507914 0.465135 -0.528210 -0.169533 0.175268 -0.238718 -0.656944 -0.053226 0.237573 0.156246 0.686319 -0.496175 -0.052004 0.016579 0.044478 -0.190686 
来 -0.510462 0.736255 -0.308483 -0.358128 -0.242266 -0.015805 -0.435342 -0.448397 -0.409787 0.379560 0.120321 -0.076083 0.037276 0.059074 -0.031973 -0.280287 -0.042140 0.897808 0.308558 -0.267161 -0.516922 -0.248362 0.105363 -0.634929 0.103692 -0.379305 -0.054016 0.008070 -0.802651 -0.055280 0.040319 -0.379875 -0.764117 -0.078364 -0.933519 0.025225 -0.239046 0.192199 -0.476847 -0.221420 -0.058360 0.161260 -0.090234 -0.208771 -0.307454 0.238457 -0.052663 0.185584 -0.453332 -0.339370 
以 -0.180545 -0.024289 0.041639 -0.041126 0.241212 0.056726 0.086146 -0.706168 -0.282506 0.295606 0.037670 0.421888 0.156022 -0.152020 0.105494 -0.184361 0.251439 0.316989 0.360323 -0.165817 -0.558944 0.257480 -0.101228 -0.364983 -0.148159 -0.271832 0.177626 -0.037037 0.041994 -0.130858 0.004850 -0.113892 -0.102181 0.062146 -0.060972 -0.210653 -0.359607 0.194307 0.067816 0.204349 -0.297379 0.032095 -0.621308 -0.088092 -0.188787 -0.243304 0.372056 -0.393652 0.452631 -0.008130 
地 -0.164261 0.228325 -0.220547 -0.128250 0.249301 0.617888 -0.418276 0.077027 0.450252 0.267481 -0.104781 -0.512614 0.024445 0.495265 0.109618 0.699471 -0.165275 0.138135 0.085352 -0.201696 -0.712214 -0.864543 -0.595607 0.226202 -0.093215 0.506095 -0.231272 -0.061296 -0.236025 0.207629 0.056601 0.732467 -0.151401 -0.110863 -0.003014 0.310900 -0.159128 -0.501489 -0.136806 0.727778 -0.385617 -0.579093 -0.594232 -0.398724 0.689342 -0.814187 -0.096000 -0.260952 -0.737592 -0.421712 
公 -0.721080 -0.367907 0.154282 -0.221554 1.360306 0.638812 -0.260828 -0.227475 1.709943 -1.011038 0.463225 -0.436804 1.130599 -0.490467 -0.667564 0.915242 0.002924 0.300848 0.576811 -0.489545 0.998083 -0.339982 -0.158794 -0.087596 -0.149891 0.131884 0.063048 0.413939 -0.432215 -0.160080 -1.089562 0.080119 0.314332 -0.308710 0.380599 -0.808673 -0.355526 -0.077071 0.331566 -0.270455 -0.946673 -0.647249 0.125565 0.233597 0.787005 -0.088055 -0.358822 -0.339392 -0.371093 1.046493 
市 -0.253672 0.526601 0.079709 -0.031923 1.256937 0.580365 -1.127666 0.618517 0.485043 -0.383470 0.192734 -0.496877 0.698657 -0.929176 0.505527 0.344714 0.165760 0.258865 0.176085 -0.079752 0.536404 -1.058513 -0.075450 0.943006 0.169937 0.837604 -0.202661 0.239530 -0.433674 -0.278494 -0.079718 -0.088254 0.091737 -1.135041 -0.331567 -0.286123 -0.339968 -0.484500 -1.108713 0.834391 0.141535 -0.925053 0.159081 -0.103631 0.308553 -1.813468 0.041027 -0.289465 -0.344144 1.157767 
作 -0.680170 -0.429370 -0.066162 0.060722 0.553845 0.008479 0.227531 -0.084512 0.057914 0.883751 0.139685 -0.363226 0.142676 -0.287333 0.258824 -0.466863 -0.761704 0.573800 -0.134635 -0.831789 0.151632 -0.178486 -0.631103 0.465536 -0.157553 0.554602 -0.274607 0.169163 0.538108 0.930127 0.608429 -0.324278 -0.302067 0.170850 0.688584 -0.567313 0.300544 -0.654998 0.562173 -0.248870 0.802630 -1.167264 0.541655 -0.585158 0.441544 -0.054206 -0.139353 -0.197125 0.184036 0.158960 
后 -0.259674 0.200654 0.210276 0.344921 -0.505346 0.024765 -0.308216 0.196692 0.147224 0.372329 -0.492374 0.551721 0.287547 0.472567 0.114519 0.303337 0.135400 0.635280 -0.454123 0.010854 -0.020613 -0.106767 0.264883 -0.468255 0.505184 -0.401822 -0.321359 -0.057880 -0.049704 0.130183 -0.299924 -0.427423 -0.630527 0.035900 -0.254455 -0.420242 0.439996 0.028827 0.116881 -0.290287 -0.009167 0.238835 0.831809 0.707752 -0.395709 0.341810 -0.286735 0.026804 -0.477208 -0.423530 
工 -1.151102 -0.060967 0.507088 0.078903 0.157343 0.970952 0.059648 -0.621311 -0.102607 0.462084 -0.488530 0.408116 0.492445 -0.810372 -0.059646 -0.171904 0.067046 -0.187850 0.041211 -0.947001 0.499892 -0.383146 -1.236158 1.424926 0.115031 0.924299 -0.212679 0.624897 0.485333 0.331932 0.233086 0.060402 -1.304109 0.870432 0.113632 -0.599073 0.281957 -0.039642 0.074072 1.017374 0.740603 -0.880671 0.669677 -0.065931 0.747027 -0.433501 -0.217409 0.156994 -0.089352 -0.366494 
他 0.126016 0.207047 -0.196003 -0.251403 -0.660530 0.383081 -0.433461 -0.505641 -0.291591 0.739903 0.021535 0.596038 -0.013242 0.566520 0.025723 -0.873253 -0.698256 0.321828 0.169816 -0.175212 -0.112733 0.574181 0.358752 -0.607275 0.078084 -0.774152 -0.433244 -0.548231 -0.828680 -0.468964 -0.346240 -0.634847 -0.746040 0.592580 -0.114431 -0.276758 -0.153337 0.205730 -0.316469 -0.386919 -0.143604 0.333978 -0.299376 -0.090754 -0.180100 0.467999 -0.125593 0.234509 -0.795396 -0.742338 
成 -0.555863 0.000964 -0.250916 0.343312 0.151575 0.091375 -0.339447 0.038945 1.002645 -0.143456 -0.060303 0.347957 -0.505396 0.141352 -0.366262 -0.483097 -0.706561 0.543788 -0.283342 -0.023002 -0.122709 -0.477662 -0.456773 0.760799 0.634668 0.528936 -0.266259 -0.044801 -0.011897 1.081315 0.637194 -0.096082 0.006604 -0.690626 0.150731 0.239525 0.003396 0.158563 0.906338 -0.003080 0.475431 0.394501 -0.280216 -0.071991 -0.589222 -0.146799 1.132257 -0.241078 0.029569 0.142765 
多 -0.197990 0.978940 -0.102645 -0.053070 0.294790 -0.257997 -0.081771 -0.387197 0.046035 -0.129210 -0.017521 0.010835 -0.066144 0.340422 0.505481 -0.668545 -0.223693 0.868756 0.321932 0.093976 -0.289307 0.495781 -0.228488 0.210770 0.610511 0.014631 -0.446536 -0.044175 -0.784483 -0.038339 -0.255460 0.310394 -0.300542 -0.312667 -0.352561 0.133035 -0.530313 -0.005555 0.175789 0.039216 -0.513951 0.776189 -1.135971 0.144954 0.221663 0.076745 0.121184 -0.023919 -0.098354 -0.769051 
新 -0.838835 -0.433346 -0.401194 -0.890839 -0.180212 -0.141014 -0.501571 -0.107200 0.033165 -0.048365 0.096030 -0.856822 -0.080996 -0.122747 0.499428 0.849009 0.000583 0.373795 0.970543 -0.090985 0.649709 -0.628153 -0.022936 -0.198377 -0.263638 0.228459 0.375777 0.417628 0.437015 0.741709 1.310295 0.050627 0.565488 -0.007432 -0.575477 -0.275213 1.096469 -0.119566 0.224688 0.220404 0.373212 0.132029 0.215989 -0.273320 1.006788 -0.029607 0.000384 0.258202 0.198506 1.065682 
方 -0.055369 -0.177974 0.338237 0.084034 0.277676 -0.149664 -0.311273 0.053672 0.134906 -0.091949 -0.006501 -0.416276 1.092900 0.240261 -0.728273 0.191631 0.034019 0.457016 -0.871361 0.107124 -0.360456 -0.499170 -0.189504 -0.118000 0.384855 0.269467 0.102685 -0.089795 -0.608857 0.252183 0.001515 0.441065 0.341442 0.045825 0.964907 -0.803452 0.580285 0.096219 0.306599 0.292723 -0.136615 -0.531198 -0.050050 0.042879 0.587312 0.232151 0.292789 -0.008176 -0.554031 -0.804611 
现 -0.422739 0.352442 0.247596 0.061668 0.698368 0.201055 -0.678542 -0.372238 -0.171986 -0.016588 0.089119 -0.209682 -0.405963 0.234453 0.715799 0.262850 0.090292 0.963662 -0.801022 0.256418 -0.137530 -0.563033 -0.161053 -0.286790 0.198684 -0.534061 -0.053156 -0.332953 -0.305516 -0.088958 0.256100 -0.266892 0.227735 -0.680607 -0.371473 -0.384816 -0.281543 -0.332826 0.749189 -0.191133 0.010247 -0.113550 0.091438 0.176772 -0.134399 0.271827 0.215452 0.489704 0.122173 -0.125844 
部 -0.133949 -0.005653 1.054743 -0.044203 0.949515 -0.028960 0.296989 1.081954 0.108272 0.975673 -0.619184 -0.503167 1.378668 -0.245714 -0.438989 0.474985 0.654272 -1.135667 0.610275 -0.654275 -0.129909 -0.688919 -0.268560 1.177166 -0.797652 0.720250 0.062186 0.591006 -0.269367 1.367961 -0.899539 0.196675 -0.048820 0.544596 -0.140914 -0.603852 -0.179982 -0.349613 0.452226 -0.595584 0.583235 -0.947219 -0.265571 -0.332577 0.341062 -0.349935 -0.081685 -0.163304 -0.498992 0.001168 
我 -0.139373 0.473284 0.051940 -0.757175 -0.727736 0.223328 -1.102858 -0.604498 -0.479926 1.709630 0.566442 0.416237 -0.280606 -0.036504 0.034236 -1.077776 -0.716588 0.836941 0.512467 -0.222678 0.272172 0.315726 -0.146586 -0.828827 -0.315665 -0.892820 -0.334712 -0.519159 -0.930615 -0.069393 0.397686 -0.451024 -0.335327 0.412996 -0.422351 0.185904 -0.466647 0.304770 -1.367823 -0.460222 0.125889 0.709902 -0.244489 -0.650413 -0.036129 1.088515 0.107330 -0.098561 -0.644417 -0.562989 
民 -0.517458 0.736975 0.010381 -0.618516 0.271822 -0.272751 0.490809 0.595944 0.086771 0.120908 -0.663166 -0.510995 0.780276 -0.098365 1.327783 -0.314862 -0.038098 0.038042 0.279638 -0.255044 1.089094 -0.301123 0.440443 0.384280 0.563267 -0.047995 0.081690 -0.511260 0.683120 -0.829941 0.299866 -0.094877 0.180439 0.028143 0.459374 -0.161443 -0.576018 -0.460638 0.333452 0.766958 -0.379814 -0.680950 0.578473 0.298321 1.694390 -1.222015 -0.276792 -0.305986 -0.954427 0.027038 
月 -0.298306 -0.222560 -0.430771 -0.089458 -1.494428 -0.422288 -0.376056 0.845654 0.737856 -1.223682 -0.383170 0.460817 0.341400 -1.074364 -0.757663 0.785121 2.862615 -0.181671 -0.388974 0.933349 0.604881 0.027968 0.722185 0.058165 0.328870 0.468657 -0.423040 0.191194 0.440555 -0.272418 -0.454571 -0.509914 0.542422 -0.734396 -0.675867 -0.593837 0.629639 1.256210 -0.715735 -0.904262 0.526112 0.780591 -0.075558 0.951782 0.827741 -0.261782 -1.043193 -0.516968 -0.182745 0.602137 
过 -0.583063 0.459709 -0.188943 -0.031271 -0.054761 0.454985 -0.187544 -0.190725 -0.550444 -0.260476 0.205900 0.167579 0.373506 -0.565099 0.241937 -0.594269 0.096820 0.473909 -0.194808 -0.173723 -0.687003 0.341619 0.396634 0.063106 0.186394 -0.013790 -0.393092 0.173713 -0.114237 -0.052874 -0.239677 0.017873 -0.470362 -0.125786 0.041271 -0.658886 0.053422 0.428503 0.112469 0.186187 -0.018906 0.511106 0.133541 0.566126 -0.564235 0.985055 -0.266726 0.046098 -0.210675 -0.978600 
全 -0.739015 -0.498985 0.380785 -0.144453 0.666035 0.297072 -0.225761 0.368792 0.029335 0.170230 -0.262540 0.410237 -0.218669 0.303570 -0.786067 -0.614218 0.534806 -0.179419 -0.163023 -0.839121 0.308919 -0.622931 -0.826660 0.714440 0.312907 0.616647 0.359036 0.018938 0.215473 0.612102 0.916347 0.170199 0.687188 -0.889454 -0.121673 -0.812923 -0.183969 -0.497062 -0.270666 -0.176723 0.405947 -0.147696 -0.173826 0.368974 0.236512 -0.985389 0.423819 -0.179132 0.002994 0.735760 
4 -0.334967 -0.228825 -0.141996 -0.010344 -0.082016 -0.194078 -0.015109 0.571826 1.260661 -0.679956 -0.649443 0.916896 0.578781 -0.147514 -0.949531 -0.020566 1.964080 0.169927 -0.505031 1.439143 -0.257601 0.032606 -0.100207 1.263239 -0.194453 0.449977 -0.446249 0.184013 0.786573 -0.109042 0.050766 -0.099078 0.418531 -0.308003 -0.750995 0.062896 0.472004 0.453171 -0.078560 -0.041741 -0.475346 1.339935 -0.379642 0.544469 0.889941 -0.649108 -0.448212 0.003487 0.545506 0.191495 
5 0.026013 -0.141715 -0.046027 -0.159149 0.169045 -0.345811 0.039473 0.595349 1.599194 -0.613967 -0.631375 1.129828 0.722082 -0.033766 -0.695007 -0.129491 1.987834 0.130948 -0.824092 1.822805 -0.491830 -0.008967 -0.010709 1.147818 -0.481269 0.494693 -0.425152 0.046921 0.796161 -0.150452 -0.107712 -0.178171 0.188237 -0.273873 -0.702419 0.085315 -0.000753 0.453669 0.082165 0.429225 -0.940021 1.359049 -0.583531 0.498276 0.720018 -0.512235 -0.466008 0.217050 0.530004 -0.245902 
业 -0.368725 -0.268629 -0.059814 -0.435628 1.079243 1.347548 -0.533553 -0.924992 1.002306 -0.382048 0.244649 0.328733 -0.343809 -0.381075 -0.396608 0.683239 -1.294615 0.782404 0.353198 -0.712045 0.990726 -1.146234 -0.558978 1.755457 1.075579 0.309566 -0.492020 -0.364194 1.033710 0.559986 0.304687 -0.073817 -0.711698 0.472833 -0.934856 0.672161 -0.650752 0.109264 0.822287 0.963306 -1.013615 -0.995161 -0.354016 -0.984124 1.715678 -0.032423 -0.015783 1.146008 2.025278 0.069232 
能 0.156676 0.311257 0.486888 -0.401336 0.311783 0.581651 0.002386 -1.035482 0.575512 0.530041 0.054060 0.341085 -0.010116 0.189713 -0.096232 -0.797492 -0.512910 0.560262 0.504189 -0.780289 -0.361253 -0.035776 -0.305815 -0.913727 0.832630 0.213177 0.557039 -0.324613 0.232680 -0.100886 0.447358 0.183185 0.111799 0.257780 0.464431 0.011992 -0.557698 0.555729 0.505518 0.962460 0.464650 0.771692 -1.187229 -0.165069 -0.822407 1.127186 0.492907 -0.077525 0.019998 -0.249316 
者 -0.446181 -0.059726 -0.825217 -0.927359 -0.560817 -0.534304 0.294885 -0.104848 -0.084760 -1.023236 -0.562654 0.118686 -0.239972 0.041856 1.243248 -0.312467 0.448559 -0.196256 -0.636317 0.386482 0.125067 -0.896272 0.624174 0.173818 0.459604 -0.020215 -1.181248 0.349171 -0.511338 -0.672515 -0.654320 -1.373944 -0.308873 0.475001 1.857237 -0.082409 -0.406822 -0.456911 -0.150706 -0.477559 -0.239002 -0.357794 -0.577750 0.804377 -0.240278 0.396133 -0.863218 -0.460937 -0.552102 0.409964 
开 -0.957661 -0.320851 0.074500 -0.052513 -0.209309 0.180840 -1.644577 -0.834077 -0.200896 -0.001544 -1.262214 -0.303347 0.428640 -0.066390 -0.062409 0.708582 0.389307 0.767841 -0.844113 -0.143971 0.879349 -0.719882 0.280969 -0.523134 0.551651 0.031592 0.745500 0.633862 0.232313 0.753589 0.310782 0.380122 -0.357546 -0.464320 -1.328577 -0.960993 0.995053 -0.173840 -0.303261 -0.509769 -0.008633 -0.156025 0.417544 0.553604 0.169906 0.054073 -0.276496 0.936530 -0.693650 0.032665 
子 0.662713 1.344599 0.148351 0.145545 -1.020781 0.930420 0.168109 0.341692 -0.314766 -0.225821 0.510069 1.376773 -0.021607 0.935242 0.021817 0.017444 -0.292661 -0.231487 -1.091552 -0.236216 0.460484 0.877658 0.347438 -0.581108 -0.584987 -0.630515 0.645371 -1.197524 -1.014282 -0.488710 0.265184 -0.428201 -0.355483 1.021454 -0.573422 -0.684743 -0.185210 -0.597388 0.733535 -0.861271 -0.158091 0.604299 1.150339 -0.061174 0.737912 -0.215270 -0.442803 0.206068 -0.254758 -0.441028 
也 -0.129351 0.337664 -0.064930 -0.262491 0.104446 0.160866 -0.151575 -0.389171 -0.079313 0.292504 0.068325 0.298461 -0.160181 0.072292 0.345157 -0.859349 -0.828209 0.575661 0.342246 -0.331367 -0.605091 0.114176 -0.097671 -0.603095 0.047241 -0.476455 -0.021289 -0.289236 -0.496609 -0.312441 -0.305052 -0.049027 -0.042246 -0.031661 0.059905 0.164822 -0.170222 0.088127 -0.254433 -0.231737 0.018869 0.302826 -0.760109 -0.017728 -0.257817 0.620236 0.196331 -0.062896 -0.166026 -0.463677 
车 -0.785940 0.387478 0.712687 -0.566817 1.623608 0.620578 -0.892477 -0.615988 0.191518 -0.792992 -0.022016 -0.696295 2.064723 1.100770 -0.878478 1.372793 1.125412 0.682710 0.054410 0.221484 0.065863 0.417590 0.381124 -0.053703 -0.364047 -0.661651 0.238948 0.801009 0.082452 -1.606129 -0.283394 1.099476 -0.670199 -0.592360 -0.431465 -2.500993 -0.339002 -0.898163 -0.038715 -0.027230 -1.386551 1.376823 0.426145 1.114896 -3.329089 0.474693 -0.601756 -0.456829 -0.238785 0.131971 
前 -0.031144 0.141972 -0.279377 0.031179 -0.111119 0.130654 -0.790857 0.217414 0.206231 0.196169 0.118357 0.428996 0.007874 0.132839 0.165661 0.134177 0.676364 0.587067 -0.074238 -0.113469 -0.210269 -0.370702 -0.025864 0.128825 0.438778 -0.133312 -0.137103 -0.053484 0.024742 -0.129737 -0.456847 0.013362 0.009779 -0.120859 -0.354882 -0.046911 0.756928 -0.373011 -0.187303 -0.783185 -0.196089 0.385583 0.249431 0.863595 -0.601173 -0.156408 -0.167661 0.104092 -0.070338 -0.522366 
进 -0.643211 0.024633 -0.077610 -0.361667 0.270806 0.567661 -0.632518 0.275776 -0.177510 0.641157 0.013630 0.269023 0.266697 -0.097822 0.247754 0.158422 -0.369121 -0.490770 -0.193463 0.129366 0.280972 -0.823564 -0.295402 0.175175 0.503248 0.303503 0.104927 -0.368922 1.369132 0.743406 0.870610 0.121266 0.166607 -1.060274 -0.034456 -1.181414 0.609215 -0.527067 0.554503 1.115296 0.360598 -1.241571 0.931515 0.866595 0.142057 -0.028891 -0.028710 0.921559 0.295498 -0.608977 
经 -0.919973 1.065165 -0.307491 0.594698 -0.504475 0.171788 -2.561400 0.447045 0.729455 0.752823 0.364042 -0.257866 -0.180136 0.831123 0.756065 -0.403096 -0.524436 -0.201622 -0.303415 -0.268930 0.787104 -0.141953 0.233470 0.670866 -0.049384 -0.355756 0.054070 0.453586 -0.333312 0.847347 -0.213334 -0.013886 -0.407738 -1.128163 -0.411839 0.126006 0.140148 0.083969 0.913017 -0.018961 -0.265594 -0.296541 -0.736307 1.164979 0.328564 -0.441278 1.015015 0.334822 0.590272 0.233148 
于 0.147650 0.012509 -0.116432 0.223130 -0.450626 0.251872 -0.334104 0.041432 0.349227 0.012632 -0.138014 0.139421 0.074714 -0.032003 -0.083093 0.063804 0.265871 0.619661 0.226557 0.109793 -0.711750 -0.061908 0.074636 0.236429 -0.016952 0.163704 0.273667 0.089034 -0.063614 0.093538 -0.684858 -0.003986 -0.163352 -0.080312 0.206204 -0.103064 -0.054479 0.458746 0.402372 -0.121486 0.151180 -0.159137 -0.174237 0.244382 0.136130 -0.428406 0.554125 -0.261705 0.123901 -0.127190 
就 -0.080990 0.415057 -0.179057 -0.260762 -0.557825 0.451554 -0.530805 -0.509094 0.077399 0.797623 0.100161 0.748434 0.026072 0.243024 0.324112 -0.717454 -0.011942 0.348053 -0.014504 -0.189490 0.336687 0.099957 0.232300 -0.348937 0.200605 -0.291472 -0.178745 -0.151496 -0.523160 -0.164826 0.086622 -0.076125 -0.464325 -0.091371 -0.627549 0.026410 -0.180257 0.003137 -0.253259 -0.303463 -0.294816 0.641180 -0.168534 -0.701635 -0.411775 0.762782 -0.157496 -0.160843 -0.236772 -0.372360 
： 1.181181 -0.382961 -0.195111 -0.696259 -0.188117 0.055249 -0.265968 0.127928 -1.262731 0.115092 0.599617 0.327922 0.260597 -0.716137 0.088753 -0.536679 0.506888 -0.035973 -0.343216 -0.097178 0.251842 -0.068959 -0.233662 0.045313 -0.045873 -0.395249 -0.295439 -0.226951 -0.621372 -0.319382 0.473295 0.128926 0.073633 0.383440 0.156085 0.791026 0.199825 -0.262144 -0.213730 -0.559404 0.343807 0.628267 -0.137938 -0.443830 0.194560 0.592108 -0.457908 -0.696159 -0.051087 0.511703 
下 -0.449829 0.206352 -0.364196 -0.293532 -0.488436 0.591183 -0.628670 -0.056158 0.558499 0.189847 -0.608488 0.689698 0.322538 0.270958 0.023338 0.576603 0.471066 0.519613 -0.200005 0.785385 -0.117014 0.105914 -0.001218 -0.356242 -0.388381 -0.103582 -0.583446 -0.465573 0.142460 0.005731 -0.228876 -0.152034 -0.189641 0.062116 -0.322470 -0.636533 -0.206199 0.255695 -0.484120 -0.097316 0.374927 -0.269221 0.024336 -0.506148 -0.503999 0.079775 -0.365773 -0.313572 0.073364 -0.582538 
自 0.129919 0.138989 -0.079133 -0.727677 -0.892752 0.682941 -0.857059 -0.050801 0.390525 -0.179205 -0.337361 0.670623 -0.144331 0.498773 0.000051 -0.739752 -0.810833 -0.649333 0.276783 0.099776 -0.053574 0.699173 -0.859860 -0.252811 0.663267 -0.959599 0.621059 -0.383757 -0.293538 -0.695824 -0.091586 -0.012072 -0.292444 0.660668 -0.583311 -0.823142 -0.059837 -0.528121 0.511515 -0.658768 0.387924 -0.416725 -0.529398 -0.103887 0.367862 0.674034 0.171315 0.645355 -0.600770 0.061226 
实 0.598938 0.033511 -0.743455 -0.976622 -0.092566 0.010210 0.606310 -0.712105 -0.078854 1.225570 -0.342600 -0.583122 0.825106 -0.503642 -0.050695 -0.513477 0.264073 -0.121388 -0.090810 -1.130924 -0.522554 0.338308 -0.997374 0.748972 0.593299 -0.254763 0.358888 0.243640 0.104625 1.409310 0.666231 1.277853 -1.082803 -1.171561 0.705975 -0.518098 0.731072 0.355668 0.700226 0.609600 1.083328 -0.834916 0.740177 0.099542 0.183750 0.324436 0.528065 -0.199436 0.515850 -0.013876 
用 -1.064895 -0.556026 0.100410 -0.845451 0.214381 0.728683 0.478932 -0.884875 -0.174605 -0.537144 0.165988 0.041702 0.282330 0.376319 -0.413222 -0.239144 -0.038207 -0.526944 0.306014 -0.347229 -0.093596 -0.023011 -0.179110 -0.385711 0.419095 0.229554 0.465935 -0.306332 0.412827 -0.289980 -0.586154 -0.208550 -0.193772 0.535106 0.801802 -0.345736 0.086967 -0.079367 0.757979 1.546306 -0.525172 -0.385245 -0.929936 -0.716641 -0.258144 0.368929 -0.529654 -0.619958 0.476196 0.284280 
动 -0.761269 0.067330 0.271595 -0.931901 -0.291768 0.547034 0.604979 -0.959769 -0.502185 0.107568 -0.888136 -0.575718 0.152925 -0.087413 -0.469273 0.372317 -0.723462 0.251040 0.654468 -0.172086 0.704404 -0.394831 -0.154999 0.356549 0.250474 -0.172343 0.564857 -0.503752 0.820808 0.772321 0.780802 0.581767 -0.207231 0.266902 -0.449174 -0.981526 0.929504 -0.247596 0.486086 0.177042 0.546751 -0.250940 0.290891 0.496944 0.107675 0.004191 0.473766 0.798064 0.572906 0.283259 
小 0.166496 0.981346 -0.615607 0.179538 0.053047 -0.193333 0.090720 0.720380 -0.034670 -0.039196 0.475812 1.236596 0.338875 0.391153 -0.022341 0.273466 -0.330672 0.389592 -0.852496 0.389422 0.299686 0.318553 0.501216 0.046323 -0.064938 -0.021107 -0.386784 -0.409815 -0.795198 0.225563 0.173652 0.074443 -0.232297 0.734543 -0.837801 -0.057157 -0.524813 -0.235819 -0.056931 -0.342239 -0.050094 -0.000135 0.602005 -0.178578 0.088388 0.484491 -0.515422 0.023718 0.122909 0.112001 
法 0.592557 -0.922048 0.020380 1.013952 0.627666 -0.446629 -0.509798 0.406893 0.219398 0.696543 0.442170 -0.598727 0.992348 -1.096930 0.351703 -0.057373 -0.066323 -0.451217 0.850049 0.302931 0.520773 0.894476 -0.844246 -0.802206 -0.522805 -0.188531 0.157528 -0.337504 0.947052 0.473297 -1.131929 -0.049134 0.482955 0.395280 1.766152 -1.242069 0.719208 0.696507 0.597762 -0.338830 -1.371544 -1.615015 0.291004 0.825805 0.260310 0.672847 0.451160 -0.513365 -0.640656 1.268728 
高 -0.308124 -0.327346 0.071238 -0.403895 1.015995 0.130969 0.187958 0.218666 0.320851 -0.586479 0.096731 0.059819 0.725423 -0.735627 0.989379 0.042130 0.226463 0.866000 -0.515858 -0.147063 -0.359928 -0.626238 0.290821 -0.458907 0.007166 0.312741 -0.777189 -0.165751 0.420827 0.446812 0.104472 0.522917 -0.404257 0.263702 -0.720254 0.678392 -0.415666 0.745082 -0.216555 0.987057 -0.023542 0.124170 -0.642938 0.085424 -0.657339 -0.875746 0.507269 -0.042131 1.312894 -0.044640 
分 -0.107870 0.101937 0.397852 0.257557 0.525099 -0.144371 -0.119905 0.633985 1.597975 0.114930 -0.732152 -0.170301 1.201804 0.112435 1.283044 -0.302757 1.307120 0.320650 -0.714387 0.089193 0.028553 0.646354 -0.901892 -0.134218 0.892834 0.229654 -0.069590 -0.518550 -0.299477 0.204074 -0.212463 0.447154 0.409193 0.508005 0.333955 -0.360447 -0.491132 0.729162 0.598806 -0.082412 0.358795 0.335159 -0.208127 -0.739310 -0.121013 -0.647979 0.076104 -0.581074 0.528396 0.158121 
说 0.468319 0.017810 -0.396605 -0.380578 -0.379871 -0.028937 -0.724226 0.215633 -0.628162 0.861626 0.558746 0.861268 -0.028008 -0.168691 0.670081 -0.707453 -0.753854 0.217764 -0.177911 -0.141871 0.247303 0.522066 0.268534 -0.304091 -0.696350 -0.790336 -0.381951 0.031119 -1.219712 -0.735690 -0.454188 -0.271384 -0.615327 0.510826 0.272624 0.325812 -0.265031 0.418294 -0.381041 -0.402923 0.075981 0.444531 -0.164818 -0.543063 -0.445742 0.413924 -0.241071 -0.072367 -1.037854 -0.165672 
学 0.461495 -1.069935 -0.305323 1.183121 -1.409349 0.254519 -0.278306 0.701637 -0.856552 0.816370 1.525744 -0.053513 0.426854 -0.453262 1.214127 -0.109114 -0.235427 0.566696 -0.342866 -1.027005 1.227040 1.238338 0.956893 -0.265801 0.677110 1.280061 -1.669109 -0.070359 -0.741768 1.100809 0.087971 -0.172881 -2.206222 0.754227 -1.074558 0.096344 -0.280972 0.691978 1.122869 0.708848 0.314175 -0.638417 -0.906702 -0.069528 0.550677 -0.834313 -0.079390 0.657881 1.178425 0.001331 
天 -0.472170 0.091154 -0.357941 -0.224687 -1.109747 0.051609 -1.013317 0.290166 0.123818 -0.354298 0.340267 0.335432 -0.086830 0.773301 0.092482 0.304821 0.909460 1.483163 0.201397 0.081336 -0.128956 0.499106 0.666122 -0.665949 0.324438 0.582176 -0.454743 0.195289 -0.299139 0.325929 -0.913797 0.003781 0.340592 -0.159549 -0.739534 -0.132400 -0.215004 0.805260 -1.093058 -1.045947 0.865751 0.710958 0.038654 -0.561305 -0.710904 -0.106496 -0.893125 -0.670331 0.254890 0.380656 
们 -0.326045 0.623629 -0.158037 -0.731708 -0.286974 0.158615 -0.739363 -0.993926 -0.363812 1.096029 0.182023 0.091733 0.159577 0.345937 -0.035305 -1.425213 -0.809426 0.752077 0.622254 -0.420518 0.032369 0.467511 -0.193689 -0.526844 0.137368 -0.628785 0.110874 -0.896505 -0.852314 -0.522669 0.318566 -0.420294 -0.498914 0.326010 -0.546274 0.257142 -0.465134 0.184395 -0.675392 -0.471933 0.127806 0.148045 -0.527320 -0.562640 -0.039624 0.640638 0.092220 0.455679 -0.709294 -0.882609 
将 -0.736579 -0.043737 0.462850 0.068295 -0.076645 -0.109854 -0.534362 0.165218 0.171258 -0.116413 -0.035501 0.054935 0.226549 0.240830 -0.456489 0.333484 0.137902 0.240216 0.116127 0.241686 -0.290559 -0.483725 -0.288121 0.074791 0.242348 -0.114718 0.543413 0.209330 0.444675 0.321047 0.042494 -0.507823 -0.319464 -0.383698 -0.145982 -0.677495 0.550937 0.000059 0.159128 -0.188741 0.123526 0.057807 0.644650 0.681584 -0.138100 -0.359444 0.202277 -0.205313 0.105058 -0.220327 
等 -0.290995 -0.026638 0.370334 0.077172 0.477028 -0.107054 0.352438 -0.603967 -0.444684 -0.570005 0.250188 -0.083235 0.668826 -0.016224 0.194886 0.261684 -0.448622 -0.194930 0.194363 -0.325373 0.095583 -0.073074 -0.470762 0.796839 0.084719 0.637162 -0.170132 -0.183778 0.128756 0.137561 0.120955 0.327213 -0.125134 -0.126709 0.347728 -0.096994 -0.267055 -0.324683 0.438800 0.358686 -0.248263 -0.687517 -0.023276 0.040415 0.146965 -0.338442 -0.256358 -0.172151 0.755643 0.396811 
可 0.092267 0.571152 0.076159 -0.653159 -0.351399 0.464785 -0.291970 -0.561211 0.084413 -0.244266 0.222297 0.529158 0.234614 0.390298 0.101336 -0.654495 -0.319792 0.143844 0.440966 0.012416 -0.388490 0.236511 -0.130650 -0.420197 0.539234 -0.109460 0.323296 -0.315090 0.094264 -0.023700 -0.541671 -0.042421 0.234494 -0.293605 0.577338 0.082394 -0.332702 0.488189 0.297747 0.283471 0.147076 0.137471 -0.941554 -0.004007 -0.756822 1.011720 0.582818 -0.207727 0.166184 -0.681895 
区 0.113604 0.815671 -0.374538 0.194076 0.438107 0.513581 -0.902281 0.767857 0.398788 0.093060 0.487240 -0.542459 0.869438 -0.447145 0.129164 0.771926 0.150936 0.484593 0.515714 -0.748776 0.214660 -1.144680 -0.088267 1.962007 -0.477769 1.060561 -0.645485 0.076803 0.106910 0.040714 0.216780 1.215889 0.862446 -0.296947 -0.485418 0.080731 -0.765252 -1.246147 0.254448 1.038379 -0.245556 -1.437918 0.362823 -0.363042 0.726435 -1.569144 -0.182192 0.200328 -0.307440 0.909758 
事 1.001051 0.177504 -0.189189 1.118483 0.063488 -0.157681 -0.290965 -0.431288 -0.149180 0.932923 -0.454574 -0.535840 0.694098 -0.357808 -0.236559 0.013706 -0.389200 0.914053 -0.333478 -0.143714 0.270390 -0.526135 -0.075721 0.138395 0.106712 -0.376720 -0.118167 -0.101921 -0.210962 -1.049858 -0.606976 -0.097014 -0.212625 -0.547979 1.384821 -0.063699 -0.123315 0.128260 1.106576 -1.289674 -0.285462 -0.690301 0.417125 -0.213226 0.160255 -0.023345 0.548455 -0.459093 -0.357056 0.175890 
关 -0.449207 -0.231801 0.146870 -0.424484 1.166454 0.054120 0.589404 -0.240520 -0.111490 1.446561 -0.267648 -0.767316 0.507354 0.092175 -1.055937 -0.215818 0.029106 -0.217954 0.095628 -0.624595 0.257565 -0.697346 -1.450444 0.010001 -0.206156 0.447014 -0.132774 -0.682674 -0.711556 -0.272137 -0.719468 0.224069 -0.041929 0.327887 2.082870 0.025908 1.097329 -0.508266 -0.392883 -1.254744 0.462415 -1.229256 0.074286 0.350017 1.176528 -0.851350 -0.783899 -0.103275 0.273929 -0.040731 
政 -0.220500 -1.276735 -0.195964 -0.289733 0.928163 -0.056697 0.161102 -0.252329 0.958707 2.867158 -0.665785 0.667177 1.217881 -2.476889 1.270397 0.080691 -0.158712 -0.681132 0.144921 -1.708853 -0.068880 -0.691216 0.208072 1.613802 -0.741518 0.327338 1.864484 0.085818 1.690549 -0.331999 -0.131074 -0.275201 1.175265 -0.897080 1.637633 -1.152951 0.073360 -0.878015 -0.124654 0.291514 -0.139220 -0.329467 -0.408714 -1.094480 1.168278 -1.688430 -0.706149 -0.103304 -0.344100 1.252370 
员 -0.100899 -0.973345 1.108404 0.112621 1.486044 0.033979 0.165905 0.358356 -0.007849 -0.204840 -0.499485 0.246282 1.159436 -0.703204 0.538238 -0.057535 0.024781 0.095261 0.000947 -1.200701 0.830683 -0.196337 0.063500 0.807429 0.220407 0.369218 -0.279922 0.335928 -0.027705 0.391541 -0.680255 -0.563430 -0.733103 1.050225 0.383826 -0.294896 -0.668878 -0.284868 0.179521 -0.763699 -0.130456 0.006468 0.396951 -0.058690 0.430423 -0.296321 -1.061555 0.559128 -0.231189 -0.626334 
长 0.604957 0.212101 -0.431325 0.204649 1.028504 -0.629303 -0.107636 -0.407902 0.980528 0.396563 0.026136 0.542924 0.236302 -0.782290 0.113554 0.459009 -0.218615 0.244568 -0.375998 -0.839551 0.552015 -0.700733 0.949024 0.400285 -1.180836 0.881865 0.054534 0.646101 -0.524731 0.740624 -0.870646 -0.230953 -0.654310 -0.196707 -0.749534 -0.092900 -0.052022 0.608980 -0.162588 -0.383444 0.117714 -0.015581 -0.263885 0.770607 -0.137741 -1.106106 -0.050242 -0.126938 0.462487 0.514467 
记 -0.636034 -0.617802 -0.252848 -1.639025 -0.742924 -0.785471 -1.012491 -0.059775 -0.359847 -0.328871 -0.320358 0.509120 -0.188643 -0.979656 0.985646 0.089395 0.388338 -0.694817 -0.062906 0.729515 0.850947 -0.239009 0.685123 1.494767 0.417135 -0.603615 -1.154073 0.630400 -1.497050 -0.835989 -0.436581 -1.730588 -0.491445 0.403628 0.652860 -0.710279 0.108952 0.475450 -0.095726 -0.314218 1.409320 -0.993576 -0.800103 -0.057709 -0.565333 1.036101 -1.464636 0.037339 -0.588932 0.317041 
报 -0.804963 -0.324750 0.356106 -0.989383 -0.982647 -0.095519 0.008165 0.816526 -1.060983 0.183549 0.753624 -1.563697 0.458004 -1.377720 0.486910 0.479273 0.162386 -0.419176 0.288143 1.405718 0.991835 -0.536206 -0.092538 0.291903 -0.191031 0.796279 -0.452611 0.925372 -0.098830 0.411583 -0.856335 -1.475810 0.757885 -0.511376 2.419024 0.594297 0.439446 0.438522 0.328149 -1.358950 -0.230135 0.659225 0.171357 0.027692 0.537213 0.026781 -1.505667 0.005001 -0.802109 -0.197539 
机 -1.200805 -0.506601 2.004785 -0.648995 0.517626 0.242411 -0.071797 -0.171526 1.003051 -0.476664 -0.304133 -0.629011 0.561663 0.627319 -0.870835 0.926840 -0.313194 -0.318487 -0.059013 -0.043087 0.441899 -0.462134 0.462580 -0.642126 0.086190 0.279751 -0.924663 -1.142709 -0.043130 0.660466 0.634635 -0.798517 -0.140798 0.361705 1.052323 -0.917689 -0.237878 -0.154750 0.605181 0.304637 -0.285231 -0.383488 0.311783 0.096142 -0.871424 -0.166838 0.559229 -0.373988 1.248394 0.046722 
6 -0.193596 -0.107972 -0.357593 -0.210238 -0.103664 -0.193320 0.017499 0.768975 1.295544 -0.891967 -0.774467 1.017846 0.707688 -0.110919 -0.827526 0.066341 2.023283 -0.106039 -0.743803 1.577213 -0.104742 -0.025253 0.107458 1.330452 -0.013771 0.274234 -0.759621 0.156395 0.664876 -0.359827 0.281907 -0.001557 0.195970 -0.479695 -0.615162 -0.091847 -0.054607 0.253050 -0.088915 0.215299 -0.718662 1.381606 -0.572484 0.628236 0.870739 -0.479639 -0.598639 -0.118711 0.841983 -0.293721 
还 0.072041 0.272591 0.170324 -0.091426 -0.077270 0.150608 -0.450846 -0.456648 0.057590 0.324941 0.361616 0.701544 0.039682 0.328372 0.160055 -0.614773 -0.383061 0.450047 -0.017719 -0.424217 -0.322590 0.111907 -0.286950 -0.413709 -0.084210 -0.243811 -0.203575 0.070397 -0.562496 -0.107501 -0.394670 -0.409738 -0.268355 0.213810 -0.029774 0.106980 -0.019618 0.127400 -0.210215 -0.152090 -0.446007 0.354805 -0.538460 -0.193427 -0.201828 0.432758 0.243759 -0.279002 -0.293517 -0.547590 
建 -1.893541 0.094101 -1.189364 -0.178560 0.787133 0.147158 -0.380886 0.163880 1.269030 0.496460 -0.811561 -0.419976 0.464427 0.358883 -0.096675 0.133106 -0.839562 -0.347463 -0.884063 -0.952552 1.233748 -0.763391 -0.794031 0.886102 -0.277174 2.053248 -0.224913 0.439181 0.451816 0.511589 2.045210 0.548651 -0.200756 0.604992 0.975580 0.165136 0.235710 -0.479179 0.048277 1.415436 0.364753 -1.203898 0.745579 0.135731 1.472685 -0.630162 0.981907 -1.290216 -0.575676 0.789791 
理 0.696972 -0.815825 0.646940 -0.049237 0.269522 0.858243 -0.416826 -0.101384 0.362246 1.020207 0.835592 0.198956 0.211066 -0.159510 1.132763 -0.037223 -0.580188 -0.665810 0.394385 -0.268287 0.365491 -0.168552 -0.696942 0.666780 0.041235 1.122905 -0.398025 0.468005 0.420291 0.190686 -1.014044 0.273430 0.195487 0.408944 1.151364 -1.199068 0.007831 -0.129794 0.787731 0.374749 -0.538485 -1.556998 -0.553832 0.469405 0.416894 0.425159 0.256016 -0.225942 0.260634 0.798454 
主 0.394986 -1.090234 -0.127166 0.406720 1.015987 -0.097857 -0.227850 -0.174189 0.224010 0.207845 -0.754137 0.280524 -0.264087 -0.887639 0.399199 0.007508 -0.406092 -0.646856 0.712538 -1.040508 0.353878 -0.649501 0.867655 -0.193010 -0.231706 0.605196 1.017008 -0.264812 -0.122046 -0.249163 0.420174 -0.027981 -0.649246 0.815737 -0.417474 -0.936146 0.674506 -0.043190 0.404474 -0.706904 -0.435859 -0.631476 -0.086158 -0.324376 0.613331 -0.789515 -0.234925 0.498650 -0.320498 0.550221 
9 0.388548 -0.404214 -0.343669 -0.128025 -0.286038 -0.369416 -0.004070 0.931479 1.523205 -0.513663 -0.958023 1.190717 0.298997 -0.619500 -1.127461 -0.181875 2.042696 -0.344152 -0.781799 1.739915 -0.131546 0.101757 0.453059 1.500430 -0.038451 0.694243 -0.585553 -0.130402 0.786510 -0.107327 0.169282 -0.111555 -0.023596 -0.568084 -0.952689 -0.150383 0.358380 0.628592 -0.119552 -0.339526 -0.260079 1.381223 -0.612053 0.682076 0.735006 -0.674951 -0.759115 -0.023523 0.544661 0.290147 
体 -0.011883 -0.327020 0.563783 -0.551017 0.307336 0.852327 -0.216538 -0.016932 -0.082104 0.251112 -0.483319 -1.295308 -0.487355 -0.473459 -0.123150 -0.424510 -0.401920 -0.823079 -0.393735 -0.407383 -0.149258 -0.577059 0.160327 0.338289 0.615334 1.096782 1.109182 -0.446594 -0.217297 1.525254 0.443902 0.671702 0.642208 -0.460065 0.156676 0.591943 0.877395 0.229381 1.590254 -0.107035 0.415015 -0.416454 -1.014592 0.623970 0.385563 0.483156 0.226115 -0.288821 0.074246 -0.904498 
定 -0.053974 0.090354 -0.526247 0.105879 0.646519 0.647427 -0.894744 0.019966 0.304209 1.076900 1.330925 0.693506 0.870274 -0.851059 -1.273705 -1.339135 0.837822 0.602401 0.832118 -0.214760 -0.813325 0.602859 -0.802810 -0.667219 -0.595052 0.489020 1.719908 0.234405 0.392286 0.323093 -0.207239 0.966683 -0.159871 -0.297140 1.822815 -0.783320 0.779585 0.707737 -0.540799 0.455673 0.167822 -1.210779 0.599741 0.423603 -0.458531 -0.216149 0.470864 -0.325695 -0.561827 0.798763 
都 -0.231373 0.668721 -0.229335 -0.050502 -0.214040 0.386899 -0.364585 -0.394093 -0.074632 0.485666 0.116009 0.308188 -0.026194 0.172592 0.450851 -0.749011 -0.263495 0.515788 0.549290 -0.301485 -0.457585 0.395389 0.004229 -0.407218 0.211693 -0.139567 -0.284635 0.120545 -0.721825 -0.243425 0.023006 0.087397 -0.077583 -0.027081 -0.439998 0.126150 -0.517863 -0.118276 -0.216445 -0.430654 -0.348144 0.396607 -0.346155 -0.699899 -0.341977 0.438387 -0.138428 -0.420784 -0.081370 -0.433574 
面 -0.341972 0.250483 0.087739 -0.079131 0.465228 -0.268217 -0.744359 -0.165115 0.504789 0.424591 -0.300983 0.006385 0.582327 1.110644 0.609856 0.352412 0.115656 -0.152758 -0.472888 -0.406973 -0.444558 -0.574015 -0.507006 0.180645 -0.029242 -0.088914 -0.140978 -0.043090 -0.524401 0.746667 0.703042 0.187550 0.917691 0.205416 -0.437464 -0.048493 0.178754 -0.132160 0.357197 -0.124905 0.259856 -0.782191 -0.488332 -0.548803 0.137070 -0.126859 0.926796 -0.194610 -0.393370 -0.602654 
安 -0.094252 -0.273824 1.034933 -0.912037 0.560145 0.305704 -0.418394 0.200197 0.149377 -0.118512 0.067257 -0.810459 0.889417 0.034510 -0.164604 -0.062544 1.349585 -0.170736 0.290249 -0.630075 0.720470 -0.098105 -0.694063 1.117936 -0.105174 0.599348 1.159736 -0.164177 0.202788 -0.231299 -0.419699 -0.605404 0.246539 -0.049338 -0.206722 -0.751179 -0.518764 -0.370553 0.172709 0.158059 0.972911 -1.091867 0.197674 0.660518 -0.882961 -1.050181 0.223335 -1.526462 -0.984232 1.076696 
8 0.107993 -0.117740 -0.674153 -0.176669 -0.049193 -0.111611 0.201697 0.786342 1.657394 -0.699926 -0.597811 1.269999 0.652333 -0.209140 -0.752983 -0.147374 1.969333 -0.144971 -0.580776 1.721368 -0.008491 0.145399 0.214068 1.381054 -0.158980 0.591904 -0.647129 0.035767 0.689018 -0.161763 0.018692 -0.137922 0.315746 -0.561666 -0.856769 0.142658 0.092414 0.470243 -0.167930 0.008871 -0.706765 1.298587 -0.733473 0.524232 1.001358 -0.538129 -0.629552 -0.141280 0.479441 0.079999 
网 -0.949688 -0.170089 0.647214 -1.648367 -0.048109 -0.214801 0.842821 -0.497219 -1.633929 -2.086980 -0.751682 -1.632865 0.965560 -0.316531 -0.144885 0.904147 0.018389 0.014937 0.493260 2.358873 0.689895 -1.038102 0.535864 0.009209 2.082847 -2.144225 0.472593 0.252806 -1.519183 -0.226207 0.239424 0.882482 0.041708 0.091469 0.407788 -0.035176 0.616334 -0.464905 -0.310490 -0.240990 0.493278 0.171858 -0.711305 0.970838 1.317538 0.910342 -1.514432 0.387340 0.043462 -0.858881 
同 -0.460814 0.132241 -0.324219 -0.299230 0.379367 -0.168177 0.134488 -0.123901 0.055903 -0.004624 -0.162688 0.332241 0.331940 -0.420371 0.204213 -0.855093 -0.738528 -0.199563 -0.085682 0.210769 -0.681396 -0.033595 0.532061 -0.072561 0.027453 0.587467 0.126213 -0.638537 -0.264604 0.048010 0.284430 0.159944 0.002902 0.229789 0.102994 -0.334294 0.058914 -0.224231 0.179729 -0.467342 -0.158817 -0.357283 -0.367083 0.246419 0.645493 -0.550152 0.313215 0.211007 0.257661 -1.123987 
力 -0.103972 -0.173253 0.311075 -0.710283 0.441295 0.224948 0.241048 -0.361793 1.074765 0.353779 -0.702573 -1.003805 -0.147650 -0.210710 -0.503143 -0.262634 -0.962983 0.487002 0.447987 -0.496508 0.267945 -1.685392 -0.135044 -0.464477 -0.335884 -0.475127 0.620809 -0.627715 1.867173 0.524055 1.103289 -0.008898 -0.547889 0.427971 -0.396591 -1.082029 -0.883095 0.975247 0.650925 1.437384 1.653417 -0.115836 -1.124980 -0.122032 0.232495 0.432530 0.500619 0.672909 0.412450 0.546820 
表 -0.582232 -1.021180 -0.639516 0.119278 1.117222 -0.673779 -1.070359 1.021964 -0.815995 0.189603 -0.412227 -0.083020 -0.116606 0.005205 0.889720 -1.050767 -1.032276 0.851421 -0.002570 -0.747021 0.003064 0.381844 -0.998932 0.540316 -0.410561 -0.947969 0.738856 0.552659 -0.652258 -0.907090 -0.554765 -1.016249 0.302031 -0.030531 0.385327 -0.668268 -0.061852 0.889360 -0.148955 -1.271021 1.253612 0.500412 -0.178465 0.230867 0.401978 -0.396136 -0.440029 -0.057535 -0.421125 -0.805577 
其 0.473536 0.084319 -0.211905 0.110017 0.028544 0.096767 0.334145 -0.505502 -0.040219 -0.479496 0.086833 0.214226 0.095221 0.296625 -0.144087 -0.538288 -0.169008 -0.151350 0.104067 -0.073462 -0.663017 0.315403 0.140051 0.291547 0.068824 -0.610704 -0.191394 -0.409393 -0.191052 0.230663 -0.341327 -0.158803 -0.414627 0.035644 0.492886 -0.047803 0.156313 0.295205 0.855929 -0.013222 -0.383346 -0.294238 -0.316410 -0.018673 0.170384 -0.815849 0.398447 0.000929 0.176013 -0.234825 
名 0.604326 -0.674253 0.304154 -0.032062 -0.089098 0.117694 0.415863 1.357085 -0.709058 -1.081312 0.511011 0.318568 0.744782 0.273537 -0.587330 -0.108979 0.444033 0.055820 0.295482 -0.113278 0.132740 0.978878 -0.334410 0.551592 0.551560 -0.496276 -0.677647 -0.121610 -0.552339 0.038169 0.483661 0.164191 -1.047607 -0.170273 0.117402 0.265008 -0.134716 0.353978 0.854219 -0.819055 -0.699072 0.108522 0.279421 -0.499824 0.259690 -0.788109 -0.221353 0.057624 -0.423176 -0.739229 
加 -0.922186 0.426787 -0.096873 -0.455422 0.893785 -0.166780 0.321847 0.391597 -0.163041 0.353541 0.374171 -0.631585 0.495536 0.212658 0.168355 -0.014365 -0.502397 -0.284175 0.083089 -0.278408 -0.015491 -1.254270 -0.418273 -0.096997 -0.939702 0.831533 0.509647 -0.690174 0.529546 0.482230 1.194452 -0.670777 -0.597631 -0.015975 -0.447129 -0.553453 0.658093 0.397386 -0.518569 0.908086 -0.011423 -0.487449 -0.445045 0.481653 0.241136 -0.420200 0.924991 -0.146991 1.392750 -0.517491 
被 0.443806 0.246020 1.170807 1.076983 -0.498114 -0.129637 0.280003 0.015676 -0.305839 -0.226215 -0.074121 0.551242 0.278057 0.521719 -0.366739 -0.055801 0.503858 0.152965 -0.234709 0.424802 0.238270 -0.083164 -0.106394 -0.160289 0.273496 -1.375434 -0.372636 -0.723405 -0.143317 -0.025638 -0.802868 -0.382551 -0.437907 -0.043100 0.335477 0.156638 0.492474 0.217064 0.585788 -0.248081 -1.096498 -0.167013 0.678452 0.848732 -0.467267 -0.227292 -0.465869 -0.088584 -0.793606 0.210503 
与 0.004277 -0.025688 -0.394697 0.053763 0.095366 -0.021346 0.015882 0.104691 0.175207 -0.127425 -0.029445 -0.355948 0.070143 0.175217 -0.197520 -0.023327 -0.762411 -0.147650 0.471357 -0.806595 -0.321132 -0.503345 -0.224035 0.335818 0.159535 0.297514 0.451088 -0.572530 -0.303169 -0.298363 0.500178 -0.400382 0.136275 0.312553 0.433284 -0.289311 0.027259 0.116147 0.433615 -0.536507 0.051342 -0.258665 0.028646 0.756757 0.609642 -0.401186 0.095128 0.114629 0.460713 -0.374201 
场 -0.952941 0.539974 -0.225111 0.679622 0.978389 0.133376 -0.527793 -0.136097 0.632725 -0.507583 -0.235189 -0.516003 0.353874 0.316697 0.180312 0.329310 -0.117684 0.261003 0.438291 -0.242835 -0.475483 -1.092963 -0.389422 -0.023325 0.951719 -0.339634 -0.319665 -0.106321 -0.149177 0.071848 0.104611 -0.204659 0.033355 -0.279716 -0.670615 0.185331 0.317576 -0.660126 -0.349123 -0.189577 -0.517703 -0.155106 0.681938 0.404427 -0.644138 -0.134442 0.083152 0.060219 0.271970 0.135437 
通 -1.176404 0.936935 0.108874 -1.276845 0.678296 1.114863 0.175335 -0.139158 -0.603107 -0.119732 0.969607 -0.731581 1.612460 -0.945870 0.115650 1.075576 0.332971 -0.103097 -0.343439 -1.000154 0.499734 0.060644 0.475080 0.601320 0.119724 -0.124492 0.268766 1.008873 -0.437977 -0.281284 -0.174921 0.191803 0.549174 -0.353267 1.754279 -1.077681 0.322896 0.051254 0.062800 0.261899 0.147652 0.271859 -0.135033 0.717767 -0.425598 0.164017 -1.039448 0.111811 0.218165 -0.123757 
重 -0.340012 0.160969 0.234310 0.342481 0.703537 -0.213712 0.215531 -0.700108 -0.122998 1.530164 -1.224950 -0.599961 -0.324290 -0.320767 -0.018162 -0.745232 0.174984 0.268689 -0.275201 0.593477 -0.399971 -0.571378 -0.373502 0.440023 -0.478845 0.500466 0.058326 -0.897094 0.335248 0.644753 0.749246 0.236390 -0.645961 -0.410636 0.073458 -0.120138 0.208913 -0.052819 -0.083799 -0.278460 0.169304 -1.295963 -0.831584 0.246450 -0.463969 -1.019037 0.684987 -0.144205 0.224798 0.680133 
最 -0.103953 -0.530222 -0.363202 0.161399 -0.443454 -0.411620 -0.037030 -0.115404 -0.200465 -0.177152 0.381275 0.473784 0.040429 0.027532 0.039292 -0.449915 0.093218 0.543063 0.838311 0.144555 -0.552105 0.046651 -0.520224 -0.489496 0.502439 -0.451140 -0.215253 -0.376598 -0.182917 0.692995 -0.119532 0.184738 -0.000439 -0.673903 -0.557704 0.888440 0.257693 0.836930 -0.111345 -0.001137 0.339489 0.123105 -0.297410 0.392412 -0.568400 -0.131812 0.625050 -0.034417 0.740807 -0.366207 
女 1.001773 1.123946 0.160475 0.106644 -0.730361 0.409955 0.269353 0.969246 -0.794010 -0.798095 0.507916 0.696700 0.315722 0.651247 -0.344055 -0.670324 -0.163534 -0.561552 -0.645084 -0.374185 0.066165 1.119971 0.384129 -0.295523 -0.231576 -0.539005 0.482585 -1.404505 -1.329404 -0.265850 0.292988 0.340313 -0.442267 1.316333 -1.169000 0.150847 0.047427 0.496125 0.624905 -1.611147 -0.318220 0.359166 0.601416 0.982715 0.846303 0.295529 0.363487 0.200650 -0.326993 -0.243198 
当 -0.230234 0.018566 0.000306 0.014998 -0.081223 0.183367 -0.536437 0.149059 -0.026934 0.554350 -0.215205 0.084412 0.229352 0.445724 0.052430 -0.167995 -0.120845 0.211139 -0.116825 0.024712 -0.226607 0.132382 -0.086933 -0.419257 0.147013 -0.142389 -0.003682 -0.371193 -0.362276 -0.413686 -1.141912 -0.285904 -0.060397 0.290677 0.085271 -0.032627 0.101878 0.213614 -0.033769 -0.949724 0.136685 0.140722 0.070102 0.111234 -0.272746 0.162869 -0.019297 -0.203486 -0.590980 -0.193509 
次 -1.222054 -0.518504 0.100603 0.762236 0.198731 -0.332690 -0.870841 0.495411 -0.308469 0.208166 -0.497569 0.502871 0.324190 -0.305054 -0.349195 -0.159021 0.832395 0.240932 -0.236738 -0.431232 -0.687959 0.365369 0.697796 0.235877 0.802029 -0.419693 0.045491 -0.058954 -0.264930 0.498845 0.579727 -0.554506 -0.067846 -0.162480 0.114282 -0.548479 0.164198 0.658440 -0.440627 -0.906382 0.169184 1.086874 0.280946 -0.007628 -0.555699 -0.618962 -0.223866 -0.665235 0.301667 -1.101510 
得 -0.321920 0.119527 -0.434194 -0.681592 -0.419490 0.209070 -0.107543 -0.405815 0.820171 -0.011775 0.479746 0.543844 0.102649 -0.044210 0.161191 -1.653166 -0.697636 0.719691 1.069029 -0.418978 -0.084366 -0.288046 -0.771614 -0.566534 0.420439 -1.156621 0.046722 -1.042536 -0.996013 0.335720 -0.950488 0.344192 -0.007680 0.032469 -0.016611 0.418662 -0.590566 0.905008 -0.450502 0.289899 -0.189922 0.175700 -0.121290 -0.925498 -0.414249 0.878707 0.904090 0.101507 -0.030942 0.373177 
本 -0.122416 -0.760437 -0.384457 -0.758884 -0.375222 -0.467075 -0.442761 0.038986 -0.160914 0.185003 -0.181595 -0.057752 -0.477246 0.237501 0.250209 -0.144319 0.647732 -0.450197 -0.013523 -0.347424 -0.688243 -0.467300 -0.093831 -0.423584 0.799582 0.567609 0.339887 0.226013 0.147735 0.203026 0.440996 0.191154 -0.259462 -0.094007 0.951048 0.578531 0.008779 0.208894 0.288961 0.002878 -0.299130 0.465944 -0.240494 0.118804 0.291124 -0.420140 0.150154 -0.024018 -0.128939 0.169840 
7 0.176576 -0.169023 -0.299027 -0.262744 -0.076186 -0.098037 0.251948 0.918308 1.512257 -0.436613 -0.767644 1.046571 0.420184 -0.229853 -0.804261 -0.279877 1.889574 -0.065270 -0.493804 1.716652 -0.234678 0.076743 0.092215 1.683109 -0.399680 0.599506 -0.702829 -0.130214 0.692358 -0.123397 0.007708 0.020345 0.246333 -0.609428 -0.567679 -0.031174 0.245456 0.401522 -0.071283 0.071933 -0.661225 1.272355 -0.603922 0.561347 0.921590 -0.714066 -0.693455 -0.135590 0.476824 0.028717 
道 -0.345213 0.719108 -0.294682 -0.806106 -1.300206 0.644448 -0.395192 -0.308490 -0.733970 0.052820 0.782463 -1.426173 0.129075 -0.955838 -0.038339 0.470577 0.022617 -0.130938 0.292829 -0.516165 0.117980 -0.659598 0.716916 -0.160069 -0.775257 0.494055 -0.277654 0.679665 -0.129776 0.147411 -0.861869 0.861917 0.627506 -0.481105 0.565563 0.397354 1.152532 0.536554 0.671939 -0.317749 -1.041051 0.364226 -0.481295 0.083619 -0.039984 0.355913 -0.853917 0.294483 -1.640880 0.090556 
好 -0.088481 0.784361 -0.009933 -0.648620 -0.324358 0.434562 0.082939 -0.464515 -0.347961 0.930859 0.154857 0.219687 0.120678 0.283237 0.408693 -1.609077 -1.129587 0.621796 0.353438 -0.302895 0.469713 -0.080707 -0.776798 -0.787539 0.296204 0.219766 -0.104213 -0.475255 -0.263995 -0.317849 0.582345 0.604612 0.079932 0.243545 -0.370881 -0.274394 -0.248200 0.419337 -0.789050 -0.067085 0.470422 0.013766 -0.334336 -0.376238 -0.155180 0.927575 0.415615 -0.103359 0.087509 0.251402 
元 -0.111280 0.083111 0.399869 0.095085 1.138628 -1.573830 0.352916 -0.825467 2.560517 -1.038061 0.532869 1.836784 0.773759 0.465270 0.281795 -1.216907 1.400130 -0.733183 -1.020597 1.655851 -1.679450 -0.013138 0.557516 1.271989 0.032041 0.205460 -0.070349 0.517855 0.304033 0.118028 -0.675791 -0.402632 -0.611935 -1.021734 -0.553656 0.992511 -0.858964 1.960304 0.056040 0.865185 -2.641169 1.982788 0.410769 -0.138446 1.956268 -0.701711 -0.678020 0.126094 0.535455 0.911348 
目 -0.552561 0.277702 -0.563503 0.181719 0.116536 -0.350201 0.054961 -0.222954 -0.116977 -0.114992 0.732473 0.057737 -0.337271 -0.011296 -0.459290 -0.856814 0.730079 0.726454 0.506018 -0.422721 -0.815133 -0.481239 -1.600457 1.591469 0.691813 0.251822 -0.654260 0.887111 0.311284 1.350355 -0.180547 0.003654 -0.359762 -0.235209 0.278907 0.711038 1.380598 -0.291904 0.482908 -0.344948 0.199095 -0.182208 0.326736 0.940177 -0.353961 0.271993 0.761542 -0.149469 0.115565 0.110525 
心 0.722268 0.060563 0.354964 0.071554 -0.282660 0.576529 -0.168478 -0.784437 -0.035083 0.562329 0.042610 -0.380982 0.145206 0.045145 -0.015314 -0.406200 -0.608407 0.402384 0.445861 -0.987183 0.519995 -0.204903 0.379482 0.075933 -0.688102 -0.471160 0.181925 -1.047582 -0.365938 0.075592 0.321474 -0.303380 0.324540 0.875112 -0.409504 -0.614037 -0.737286 0.509238 -0.426906 0.359433 0.985042 0.158986 -0.501921 -0.156640 0.370226 0.046728 -0.071031 0.262058 0.083857 0.587323 
化 -0.662065 -0.130440 -0.296845 -0.416285 0.437211 0.526799 0.064525 -0.182740 -0.248963 0.180672 0.171080 -0.622716 -0.730319 0.432046 0.521707 -0.075098 -1.055171 -0.038671 -0.354182 -0.463251 0.764926 -0.639588 -0.777565 0.421284 -0.348380 1.127918 0.122937 -0.123079 1.104620 -0.223263 1.677751 1.085119 -0.282143 -1.055352 -0.235029 0.036173 0.510762 0.319007 1.772446 1.449570 1.162000 -1.575373 -0.696995 -0.103527 1.020421 -0.361210 0.204886 0.306629 0.741982 0.488094 
而 0.055289 -0.038374 -0.414456 0.329907 0.310904 0.296418 0.336543 -0.439502 0.125545 -0.134549 0.049091 -0.026800 -0.140416 0.439534 0.133284 -0.653496 -0.491901 0.557627 0.236132 -0.699386 -1.307307 -0.046184 -0.128551 -0.304821 -0.349253 -0.667227 0.173576 -0.456935 -0.094369 -0.235232 -0.346994 0.086881 -0.350561 -0.524212 -0.214560 0.128126 0.055373 0.729314 0.378775 -0.387729 -0.130819 0.107390 -0.594282 0.196705 -0.692083 0.455183 0.160458 -0.379179 0.115931 -0.017706 
务 -0.008944 -0.114598 0.647407 -0.901154 1.561365 0.949545 -0.060462 -0.852072 0.437306 0.194159 -0.472602 -0.161252 1.297618 -0.649874 -0.347151 0.268877 -0.769174 -0.213413 0.264145 -0.900996 1.554499 -0.923072 0.551628 0.498231 0.192125 1.731938 -0.090764 0.596997 0.467494 0.563103 0.005940 -0.434578 -0.467166 1.524186 0.202094 -0.945117 -0.484022 -0.675420 0.571952 0.141200 -0.478471 -0.439252 -0.435221 -0.133920 1.786700 0.484401 0.414038 0.489494 0.796287 0.751101 
》 -1.081061 -0.345552 0.062283 -0.218058 -0.836412 -0.189577 1.065657 0.809522 -1.129143 0.480309 0.756605 -0.553978 -0.464827 -1.797404 0.142182 0.666140 0.442676 -0.044198 1.473911 1.564825 -0.118173 1.087693 -0.785478 -0.109758 -0.812314 0.482459 0.298797 0.010500 0.850839 0.807804 1.612539 -0.112004 0.376586 0.529602 1.337098 0.452828 0.892913 -0.253697 -0.047011 -1.876713 -0.295913 0.188092 0.879068 0.287281 0.653207 0.267309 -0.993888 -1.091014 -0.174480 1.249531 
《 -1.494135 -0.474435 -0.134434 -0.240984 -0.978103 -0.387895 0.918744 0.640259 -1.092073 0.189484 1.084281 -1.182069 -0.585414 -1.859852 -0.003828 0.740752 -0.138826 -0.171872 1.574745 1.060453 0.157888 0.788231 -0.487628 0.049138 -0.968928 0.319788 0.379340 0.039685 0.436397 0.958515 1.267784 0.095652 0.297882 0.162244 1.056842 0.422849 0.454167 0.288059 -0.029301 -2.176648 -0.270951 0.369091 0.906435 -0.078245 0.111028 0.769420 -0.990681 -1.079440 0.067265 1.207084 
度 -0.588183 -0.244814 0.299259 -0.959077 0.833590 0.352518 0.280771 0.460008 -0.176943 -0.372387 -0.390962 0.155376 -0.074222 -0.101995 0.453150 0.249435 0.577411 -0.320272 -0.008561 0.188079 -1.508857 -0.128842 -0.782849 -1.410864 -0.530806 -0.066733 -0.870502 -0.405064 0.892462 1.548595 0.368113 0.769577 0.114527 -0.025404 0.290990 -0.137969 0.306473 0.208096 -0.535860 0.837518 0.954947 -0.532167 -0.567024 0.691492 0.196461 -0.708873 0.672112 0.338165 0.926424 0.460628 
点 -0.653990 0.582202 -0.430370 0.105398 -0.318410 0.132089 -0.042370 -0.037236 -0.271215 0.741133 -0.471270 0.024143 1.047302 -0.006062 0.236267 -0.298598 1.048108 0.432695 0.050079 0.516476 0.346079 -0.607920 0.144568 -0.032591 0.796008 0.115692 -1.139779 -0.456761 0.244741 0.796894 0.413195 0.698277 0.482771 0.402826 -0.767454 0.231963 0.687801 -0.236665 -0.683655 0.331105 0.057756 -0.276865 -0.175259 -0.276223 -0.507505 0.377410 -0.252993 0.166050 0.177846 0.184782 
之 0.137686 -0.287177 -0.342709 0.233720 -0.341216 -0.216764 -0.202723 -0.248683 -0.006910 0.073051 -0.249330 -0.008434 -0.197263 0.339982 -0.136606 0.138176 -0.391192 0.848945 0.508910 -0.318001 -0.755443 0.004792 0.200645 -0.257992 -0.001358 -0.335021 0.041617 -0.306844 0.174959 -0.004848 -0.038555 0.323500 -0.320243 -0.268600 0.027589 0.247682 0.225294 0.328063 0.139009 -0.512225 0.082588 0.224948 0.153201 0.155891 -0.262522 -0.036555 0.146113 -0.358559 -0.233031 -0.106704 
合 -0.192557 0.984738 -0.599927 0.336838 -0.866090 2.195029 0.571284 -0.146769 0.088964 -0.385916 -0.424794 0.487980 0.074195 -1.600047 -1.144726 0.459711 -1.302228 -0.794778 -0.159992 -0.316758 -0.243189 -0.708282 -1.098900 0.490965 1.006930 1.380586 1.239303 1.560006 0.183915 1.091465 1.308897 -0.471898 -0.107769 0.342464 2.050066 -1.242939 -0.526008 0.540431 -0.144515 -0.016861 -0.480263 -0.618505 -0.094996 -0.456978 -0.177822 -0.464785 -0.029591 1.781256 1.067647 0.781419 
提 -0.171203 -0.648396 -0.057308 -1.738570 1.348442 0.110041 0.275241 -0.039290 -1.052018 -0.203260 -0.266839 -0.208579 1.613034 0.369202 0.721893 -0.635815 -0.029038 0.648288 -0.671050 0.774193 0.261297 -0.082438 -0.267890 -0.503142 0.714775 0.658616 0.917888 -0.202308 0.348085 -0.203818 0.273648 -0.404428 -0.237403 -0.515728 1.040817 -0.876861 0.018809 -0.506541 0.358586 1.269385 0.673793 -0.393637 -0.084369 0.238446 0.209487 -0.944833 0.494512 0.579199 0.322983 -0.896284 
制 -0.607050 -0.906678 1.064788 -0.934328 1.235127 0.897893 0.369032 0.175726 0.462140 0.117846 -0.266908 0.399866 -0.023266 -0.859641 -0.906639 0.335409 -0.007052 -0.552856 0.267571 0.175691 -0.181830 -0.295014 -1.468220 -0.533150 -0.665622 1.185997 -0.558656 -0.556033 1.387108 1.203439 0.723206 -0.345451 0.361637 -0.272434 1.300085 -0.602320 0.352198 -0.453209 0.720915 1.101058 -0.072406 -1.506564 0.104055 -0.089939 0.411459 0.984891 0.362227 0.188245 0.213039 0.852036 
外 0.195273 0.439667 0.146448 0.501875 -0.402193 0.390565 -0.305008 -0.060442 0.046084 -0.415872 0.417335 -0.630919 0.509854 0.542254 -0.201979 0.365524 -0.372823 -0.205951 0.697559 -0.239389 -0.785024 -0.141056 0.282416 -0.024015 0.646065 0.098330 -0.104026 0.367564 -0.483352 0.268503 -0.315243 0.249401 0.107368 -0.095465 0.123087 0.234103 0.149050 0.056936 0.590215 -0.518591 -0.673767 0.115234 -0.673206 0.396944 0.294292 -0.577260 0.149226 0.025351 0.100805 -0.406759 
保 -0.209580 -1.736570 0.944545 -1.865632 1.105101 0.745248 -0.487465 -0.146292 0.502371 0.143974 1.964510 1.133441 -0.789206 1.617715 -0.910356 0.417968 1.202711 0.118706 0.355312 -0.604050 1.240140 -1.318977 -1.696486 0.258908 0.165861 1.219305 1.268466 -1.397885 -0.028218 -1.334234 0.469841 0.369269 -0.162297 0.495505 0.879162 -0.655941 -1.331409 -0.104524 -0.757941 0.845029 -0.156252 -1.381463 -1.416072 1.184481 -0.118050 -0.100951 0.839938 -0.866542 0.301802 1.142349 
情 0.425956 1.501089 0.786466 -0.262003 0.633487 1.020545 -0.414605 -0.313469 -0.775131 1.314001 -0.161439 -0.422850 -0.569806 0.585504 0.670657 -0.143944 -0.373987 0.724336 0.414735 0.021493 -1.040195 1.199342 -1.497987 0.758047 0.069617 -0.810695 -0.067741 -0.821517 -1.379881 -0.808066 -0.042948 0.444441 0.848733 -0.241328 0.919423 -0.416084 0.718774 -0.409488 -0.537738 -1.757331 1.349463 -0.061428 0.011015 1.883445 0.307202 0.582618 -0.329274 0.013921 1.231618 0.710234 
起 -0.141818 0.355355 0.144018 0.849127 -0.163590 0.364282 -0.303732 -0.050160 -0.139627 0.370743 -0.451667 -0.099504 0.763770 0.516765 0.079881 -0.234178 -0.125944 0.399634 -0.141739 1.062253 0.396398 -0.794355 0.136645 -0.052066 -0.012136 -0.513059 -0.281575 -0.722075 -0.415214 -0.154191 0.165922 0.157565 -0.132747 0.434263 -0.465903 -0.375582 -0.057716 0.071287 -0.594816 -0.464020 0.024795 0.217729 0.463301 -0.073992 0.131539 0.327301 -0.449311 0.046167 -0.242527 -0.463496 
产 -0.510961 0.152001 -0.504779 -0.271155 0.642819 1.318447 -1.346202 -0.910516 0.839488 -1.164235 0.219543 -0.315159 -0.760741 0.646840 -0.773194 -0.106376 -0.736455 -1.077811 -0.522985 -0.966352 0.149044 -0.455919 -0.150676 1.000065 0.167601 0.009537 0.018559 -0.497096 0.484620 0.134233 0.873765 -0.370903 -0.296697 -1.338516 -0.492117 0.735780 0.617647 0.797580 0.765214 1.268239 -1.041130 -1.064605 -0.362169 -0.352719 1.202537 -0.076495 0.553786 0.165540 1.673592 1.291232 
据 0.207955 -0.021007 0.232806 -1.275679 0.584761 0.761484 -1.002880 1.157872 -1.498488 -0.449376 0.055671 -1.887830 -0.653289 -1.351492 -0.765177 0.793188 1.434722 0.691073 -0.654595 0.581476 0.026192 0.147840 -0.738696 -0.965417 0.783037 0.022498 0.903731 2.409894 -0.808943 0.770614 -0.954434 -0.500515 -0.540216 -1.007605 0.849418 0.539343 0.614096 0.672715 1.724393 -0.120723 -0.965332 0.738242 -0.483886 0.724038 0.776914 -0.475683 -0.765013 0.716674 -0.780899 0.101464 
间 -0.476938 0.274760 -0.207481 -0.002151 -0.231476 0.233323 -0.350238 -0.515413 0.031397 -0.162774 0.025896 0.611661 0.151579 0.685720 -0.022702 1.266731 0.539122 0.282494 0.309475 -0.127492 -0.998719 0.200596 0.770921 -0.679789 0.547553 1.021563 -0.593821 -0.145100 0.127759 -0.591943 -0.744209 0.920007 0.511294 -0.004544 -0.287180 -0.703758 0.631839 -0.144827 -0.036175 -0.481214 0.749296 0.611358 -0.158590 0.937822 -0.221343 0.634583 -0.302234 -0.992272 0.686374 -0.960809 
电 -2.092451 -0.397131 0.411007 -0.800658 -0.651122 1.426077 1.097803 -0.756891 0.685998 -1.255854 0.539234 -0.274846 0.457390 0.503807 -0.745579 -0.716035 -0.067112 -1.211359 0.848957 0.624763 0.530475 -0.668201 0.789254 -0.362389 0.668395 -1.026539 -0.410233 0.957811 -1.202290 -0.867915 1.133978 -0.911852 0.316048 0.620876 0.708815 0.141417 0.341736 0.026663 -0.113173 -0.083493 0.891071 0.349930 -0.442538 0.079890 -1.640012 -0.970816 -1.818908 -0.129936 -0.450622 0.714296 
所 0.420914 0.361434 -0.448127 0.234494 0.017654 0.716577 -0.080041 0.281255 -0.054937 -0.025492 0.249069 0.091670 0.520209 0.337464 0.358350 0.173793 -0.142985 0.383509 0.626928 -0.739107 0.120549 0.247228 -0.145857 0.205481 -0.062259 0.641080 -0.313054 -0.392716 -0.352411 -0.440565 -1.096329 -0.399334 -0.224317 0.085204 0.400364 0.200166 0.161443 -0.217252 0.947098 -0.648914 -0.708358 -0.577768 -0.185386 -0.290814 0.032635 -0.136962 0.644564 0.016089 -0.351891 -0.192525 
位 -0.089262 -0.493124 0.399866 0.212759 0.124618 0.981618 0.166628 0.404916 -0.005712 -0.033163 0.471975 0.826876 0.746049 -0.325730 -0.444744 0.209773 0.338482 -0.419468 0.182890 -1.346004 -0.228351 0.076619 0.040728 -0.069265 0.245821 0.617305 -0.426477 0.091796 -0.420231 -0.374506 0.221549 0.625866 -0.804242 0.404576 -0.216273 0.028841 -0.391366 0.034252 0.096358 -0.834789 -0.975165 -0.530645 -0.619514 -0.796434 0.151136 -0.360844 -0.270173 -0.904418 0.173680 -1.367634 
海 0.446313 0.686910 -0.174545 -0.114687 -0.710474 -1.347484 -0.957474 0.282567 0.186575 -0.570310 0.600316 -0.950048 0.429775 -0.335476 -0.863474 1.518069 0.296858 0.066812 1.359221 -0.214117 -0.630360 -1.347837 -0.013306 0.985744 0.075837 0.215748 -1.040380 0.122964 0.060121 -0.058664 0.320263 0.276800 0.524225 -0.270983 -0.042553 0.186717 -0.450445 -0.225362 -0.255987 0.476048 0.292097 -0.729257 0.026621 -0.076092 -0.191453 -0.959895 -0.778031 0.792183 0.009392 0.127824 
内 -0.123062 -0.008439 0.052377 0.703329 0.300457 0.791218 -0.081750 0.331900 -0.141147 -0.385782 -0.557433 -0.502795 0.215447 1.344772 0.013698 0.031458 0.459408 0.355310 -0.265595 -0.727463 -0.699806 0.018073 0.065827 0.042551 0.146310 0.599648 -0.809395 1.167060 -0.092442 0.124934 -0.360816 0.484457 0.085421 -0.082249 0.143265 -0.403433 0.357944 -0.624943 1.120552 -0.284280 -0.349933 0.122409 -0.448334 0.031902 0.279400 -0.872696 -0.595302 -0.152058 0.007047 0.523966 
此 -0.169441 -0.319457 -0.068656 0.124127 0.126591 -0.101150 -0.690313 0.036021 -0.467115 0.090908 -0.064692 -0.522743 -0.191342 0.009941 0.256092 -0.262273 -0.503774 0.454962 -0.148523 -0.045548 -0.755068 -0.489020 -0.090109 0.095537 0.215644 -0.473797 0.052202 -0.104597 -0.279947 0.125071 -0.658119 -0.455880 0.062317 0.015912 0.769730 0.297364 0.386350 0.249897 0.083928 -0.900629 -0.057712 0.248674 -0.477084 0.458001 -0.207003 0.170004 0.447082 -0.317767 -0.308570 -0.510827 
着 -0.280054 0.935551 0.229650 -0.486509 -0.797785 0.137513 -0.026285 -0.393679 -0.172726 0.206777 -0.510136 0.472162 0.589342 1.259626 0.053426 -0.163996 -0.430684 0.158912 -0.298841 -0.330043 0.187242 -0.121052 0.168199 -1.150465 -0.691933 -0.171889 -0.339903 -0.515921 -0.745880 0.299484 0.600623 0.195862 -0.147540 0.907263 -1.175794 -0.691438 0.437781 -0.087054 -0.329270 0.132715 -0.193064 0.140553 0.516099 -0.258500 -0.208121 0.116309 -0.492946 0.705285 -0.482179 -0.387695 
从 -0.195322 0.335734 0.056730 -0.226788 -0.436600 -0.042935 -0.552492 -0.079637 0.111446 0.214125 0.149937 0.208919 0.231142 -0.013396 0.052343 0.227519 0.788371 0.582031 -0.307906 0.031589 0.164433 -0.229892 0.226445 -0.136026 0.338211 -0.358135 0.055063 0.358320 -0.248434 -0.068563 -0.191938 -0.043964 -0.328415 -0.339955 -0.590326 -0.351434 0.221117 0.378634 0.081814 -0.384780 0.208070 -0.384888 -0.130687 -0.064351 -0.484736 -0.130684 0.068246 -0.137774 -0.153674 0.124112 
但 0.158090 0.079008 -0.310541 -0.020896 0.018548 0.475312 -0.624726 -0.374435 0.047581 0.107640 0.292632 0.352812 -0.258027 0.284018 0.364864 -0.752143 -0.366444 0.911408 0.154645 -0.339794 -1.062488 0.118635 -0.065401 -0.976047 -0.231630 -0.820875 0.048342 -0.080815 -0.554183 -0.006775 -0.833639 -0.053311 -0.413803 -0.240410 -0.021960 0.239080 -0.102773 0.729680 -0.027888 -0.045210 -0.249815 0.190885 -0.650079 0.059610 -0.476368 0.726769 0.468211 -0.054369 -0.329759 -0.347468 
已 -0.165207 0.345380 -0.207098 0.280801 0.368624 0.359211 -1.090883 0.000895 0.164792 0.001624 0.097029 -0.026978 -0.498818 -0.033568 -0.225826 0.353505 0.430148 0.690410 -1.070150 0.114747 -0.148981 -0.294438 0.066465 0.867847 0.603310 -0.380260 -0.058571 -0.184006 0.183719 0.360761 -0.497442 -0.098908 -0.304092 -0.714666 -0.330807 -0.083956 0.349749 0.090031 0.482943 -0.566161 -0.555011 0.492542 0.274650 1.035056 -0.194130 0.105807 -0.147705 0.007391 -0.175021 -0.595727 
展 -0.837942 0.540853 -0.358397 0.444808 -0.032203 -0.304674 -1.414263 -0.538930 0.562122 0.724484 0.434221 -1.530423 0.009018 0.473604 0.854313 0.125611 -0.685195 0.648226 0.040725 -1.190642 1.158270 -2.000547 -0.908267 0.565208 0.120554 0.265613 0.536693 0.046451 0.691047 0.265290 1.889551 0.426241 0.981568 -0.240221 -0.993667 -0.489439 0.738273 0.031962 0.765346 0.937368 1.251573 -0.719602 0.345734 0.712225 1.261132 -0.111507 1.234180 0.779278 1.533274 0.498695 
示 0.396061 -0.883336 -0.488270 -0.740238 1.583487 0.078926 -1.370391 0.644429 0.158489 -0.324904 -0.268942 -0.312416 -0.905248 -0.055704 0.891976 0.816716 -0.751075 -0.354215 -0.648149 0.306024 0.183517 0.493802 -0.290586 -0.513431 0.484166 -1.354590 -0.814921 1.140944 -2.017476 0.319851 -0.648858 0.206333 -0.648449 0.819469 0.721438 0.199463 1.196589 0.763878 -0.272950 -0.893148 0.760228 0.029160 -1.082415 0.754598 0.261310 -0.437074 -0.020716 0.559620 -0.296680 0.651500 
省 -0.556464 0.309001 0.316611 -0.130078 0.877256 -0.405236 -0.741099 0.479216 0.140639 0.177555 0.338760 -0.058039 0.968805 -2.560665 0.159148 -0.016313 1.639712 0.811167 0.244092 -1.057902 1.070220 0.123086 -0.300137 2.099728 -0.289517 0.665889 0.074974 0.752182 -0.717434 1.196719 -0.333833 -0.551542 0.150477 -0.009264 -0.758406 -1.664650 -0.939323 -0.124835 -0.517502 0.396504 1.074609 -1.158745 -0.172491 -0.616211 1.651098 -1.836900 -0.244935 -0.969503 0.288132 1.684488 
入 -0.138692 0.828422 0.058878 -0.236674 0.019557 0.148164 0.250720 -0.239608 0.354179 -0.162623 -0.478234 0.478053 0.140208 0.216162 -0.223422 0.458943 0.518922 0.170179 -0.503409 -0.603202 -0.307856 -1.012885 -0.359125 0.100979 0.850808 1.120434 -0.510634 0.226354 0.684098 0.086658 0.007054 -0.195209 -0.293142 -1.514119 0.106682 0.487328 -0.129965 0.190620 0.643565 0.679602 -0.879325 -0.273996 -0.342729 0.473246 1.106207 -0.499098 -0.448361 1.142310 0.536756 -0.632079 
美 -0.155819 -0.188124 -0.484216 0.417115 -0.909593 -0.703072 -0.497045 1.041583 0.027201 -0.228849 0.049306 -0.623658 -0.747059 0.124418 -0.254717 -0.593042 -0.487612 -0.405357 0.653380 0.101456 -0.537808 -1.120703 -0.240183 -0.609234 -0.073610 0.356893 0.556040 -0.206070 -0.105559 0.082859 0.124829 0.078874 0.482350 -0.411776 0.074529 1.083291 -0.342493 -0.210343 0.549781 -0.885189 -0.842559 0.996117 -0.874893 0.029533 0.884115 -0.338894 0.218189 0.315230 0.257550 0.433181 
路 -0.413538 1.462853 -0.383235 -0.825754 0.589548 -0.416558 0.061030 -0.947352 -0.103383 0.079733 0.925483 -1.170452 2.218261 -0.285771 -0.457208 1.415028 0.054504 1.197232 0.313374 -0.521013 0.514764 0.009651 0.517880 0.148614 -0.652500 0.584792 -0.333741 1.531367 0.861486 -0.787633 0.099491 1.282291 0.145010 -0.802265 -0.517670 -1.011647 0.409154 0.397308 0.056754 1.052578 -0.346341 -0.474059 0.093787 0.890443 -1.912732 -0.543411 -0.646771 -0.637407 -0.909247 -0.833016 
性 1.050835 0.272212 0.292735 -0.232869 0.269718 0.598421 0.845911 -0.135316 -0.893347 -0.029065 -0.201224 -0.107053 -0.655233 -0.169334 0.056996 -1.280627 -0.292271 0.138375 -0.370954 -0.677270 -0.682180 -0.305754 0.689245 -0.651512 -0.013879 0.318400 0.451673 -1.557883 0.149124 0.405326 0.533387 0.913210 0.500496 0.040747 0.432030 -0.128213 0.530362 0.547073 1.031634 -0.027402 0.267539 -0.065002 -0.960709 0.608290 0.262797 -0.028820 0.996645 -0.113078 1.244714 0.249664 
去 -0.314806 0.763237 -0.107636 -0.323048 -0.779496 0.021620 -0.850128 -0.211112 -0.092504 0.993153 -0.312931 0.693611 0.066385 0.117696 0.015517 -0.067506 0.416320 0.546302 -0.348410 0.307833 0.145748 -0.265145 0.477753 -0.329119 -0.134970 -0.260275 -0.436396 -0.003309 -0.277939 0.182470 -0.199051 -0.497746 -0.794426 -0.165114 -1.107842 -0.214042 -0.512737 0.100089 -1.011304 -0.560343 -0.450276 0.642198 0.003834 0.277947 -0.017126 0.268775 -0.137903 -0.071880 -0.328765 -0.590691 
两 -0.020186 0.775946 -0.258057 0.266225 -0.319864 -0.135710 -0.137167 0.002774 0.084197 -0.011878 0.281387 0.460300 0.152223 0.501823 0.125102 0.246300 0.358436 0.139889 -0.207412 0.117236 -0.460157 0.322119 0.532189 0.121185 0.455907 -0.134043 -0.076298 -0.395237 -0.246552 0.351805 0.152712 0.205366 0.056833 0.303536 -0.310915 -0.820197 0.214398 0.008517 0.458187 -0.648348 -0.509706 0.484263 0.601974 -0.090771 -0.090030 -0.503711 0.088924 -0.187990 0.004776 -1.028885 
没 0.269663 0.433403 0.157710 -0.324154 -0.414818 0.801374 -1.157550 -0.736200 0.292610 1.142962 0.551034 0.933614 -0.348344 0.508221 0.104966 -1.065391 -0.000698 0.302731 0.058289 -0.324313 -0.517360 -0.033869 -0.074867 -0.625805 -0.133437 -0.792046 -0.186644 0.074923 -1.139144 -0.406258 -0.795809 -0.336998 -0.563288 0.018040 0.384973 0.243549 -0.385608 -0.012042 -0.303264 -0.009262 -0.324886 0.266395 -0.321972 -0.699543 -0.792857 1.357819 -0.123161 0.139139 -0.880462 -0.235723 
并 -0.247809 -0.437860 0.252244 0.152889 0.629907 0.341929 -0.309577 -0.499257 0.005820 0.061302 0.176023 0.035034 0.488240 0.483216 0.030956 -0.175977 -0.493133 0.136361 0.208971 -0.040127 -0.531066 0.253314 -0.457990 -0.221663 -0.032149 -0.297113 0.248156 -0.414210 -0.361163 -0.170457 -0.778075 -0.581027 0.102662 -0.071389 0.888417 -0.463872 0.603680 0.377311 0.409442 -0.309073 -0.219388 -0.317855 0.260113 0.244031 0.072618 0.423732 0.113519 -0.096182 -0.155326 -0.146133 
明 0.079358 -0.751098 -0.323047 -0.875470 1.208427 0.360566 -0.937191 0.645732 -0.701788 0.143820 0.681120 0.447288 -0.852661 0.030003 0.491539 -0.254135 0.264655 0.462765 -0.249893 -0.114815 -0.465980 0.127037 -0.454996 -0.663096 -0.123949 -0.532711 1.052643 0.681288 -0.971559 0.509265 -0.190163 0.893644 -0.356124 -0.101179 0.649049 0.469545 0.160225 0.467571 -0.072410 -0.558965 0.654039 -0.292209 -0.004094 0.490475 -0.289746 0.161219 -0.478605 0.737992 -0.376741 1.078356 
里 0.129624 0.743608 -0.527688 -0.180211 -0.644768 0.341702 0.019133 -0.169576 0.196143 0.468765 -0.224758 0.017673 0.747080 0.677073 -0.035462 0.586327 -0.104816 0.554930 -0.296635 -0.088708 0.041995 0.631291 -0.143144 -0.217042 0.134124 0.377082 -0.200326 -0.083531 -0.945397 -0.294302 -0.183886 0.251219 0.026312 0.113271 -1.453009 0.516459 -0.475472 -0.701023 -0.059205 0.729513 -0.825031 0.664969 0.226456 -0.429685 -0.173992 0.165353 -0.513175 -0.408266 -0.933604 -0.500222 
三 -0.110751 0.069503 -0.163631 0.558646 0.333187 -0.412513 -0.490389 0.832276 -0.048197 0.273762 0.281653 0.788962 0.265044 -0.159527 0.188068 0.702721 0.614580 -0.112451 0.347395 -0.544392 -0.233598 0.419127 0.245907 -0.051386 0.587388 -0.035190 0.338323 -0.073368 0.389921 1.150512 1.179219 0.170660 -0.172341 -0.364545 -0.434319 -0.319969 -0.101503 0.048178 -0.709309 -0.338515 0.087765 0.540966 0.693939 -0.295236 -0.200528 -1.226176 -0.142822 -0.803354 0.222316 -0.284452 
. 0.776644 0.149093 -0.472262 -0.679946 1.449933 -0.454284 1.107640 0.333737 3.258708 -0.839427 -0.562956 1.022031 0.423700 -0.433413 0.127094 -1.147839 1.823733 -0.919554 -1.179610 2.358272 -1.377734 -0.592424 0.235113 1.695269 -1.107610 0.793674 -0.428262 -0.929160 0.539496 -0.242215 0.673542 0.176924 0.448438 -1.320656 -0.548454 -0.088607 0.441480 0.453584 0.018262 1.461151 -1.749878 1.526603 -1.674238 0.617140 0.915835 -1.273749 -0.648215 0.589478 1.780006 -0.074453 
万 -0.491429 -0.352413 0.195151 -0.091530 0.775937 -0.698211 0.762401 -0.512954 1.954503 -0.856784 0.407392 1.505946 0.723977 0.774790 0.039905 -0.810549 0.738753 0.142303 -0.755648 1.904924 -0.863410 0.482252 -0.081874 1.684757 -0.327768 -0.196397 -0.405917 -0.292881 0.483627 -0.452415 -0.392564 0.047697 -0.724400 -1.036021 -0.923984 0.741468 -0.949494 0.677410 0.208164 0.938934 -1.896159 2.125930 -0.702060 0.283398 2.303517 -0.544593 -1.010030 0.073778 0.488897 -0.301442 
委 -0.197056 -0.887471 0.176648 1.189789 2.191325 -1.110646 -0.679523 0.726294 0.191043 1.585595 -0.755120 0.519301 1.559080 -3.049511 0.717347 0.150021 0.847374 -0.198330 -0.083831 -1.849710 1.620067 0.082834 0.687055 1.767965 0.084415 0.540131 0.916054 1.457843 -2.403198 1.183723 -0.294658 -1.593518 0.009744 0.589461 -0.242241 -1.553373 -0.692417 -0.217429 -1.284347 0.283769 2.136330 -1.413597 -0.171047 -0.910781 1.501047 -1.602234 -1.375760 -0.331263 -1.815734 1.425210 
正 -0.616474 -0.558419 -0.005292 0.084363 0.214839 0.003639 -0.911355 0.101570 -0.215692 0.809276 -0.183209 0.153854 0.769001 -0.357739 -0.215827 -0.239966 -0.192800 0.043485 -0.063329 -0.068567 -0.120558 0.052695 0.063156 0.068610 -0.064536 0.055794 0.840117 -0.205756 0.025484 -0.195940 -0.018369 0.668703 0.231825 -0.000083 0.163431 -0.203885 0.184016 0.198499 0.288872 -0.219209 0.725024 -0.518008 0.216678 0.271470 -0.211568 0.820634 0.076044 0.059280 -0.283276 0.105020 
金 -0.313734 -0.721022 1.118175 -0.650289 0.755240 -0.444882 -0.001957 -0.585965 0.783573 -0.790693 0.778433 1.820027 -0.619270 0.823227 0.080259 0.022774 -0.074026 0.379831 0.296550 -0.509344 -0.187532 -0.873752 -0.267522 1.956139 0.121012 0.308000 0.744995 0.006976 -0.101795 -0.002704 -0.346745 0.105818 0.035667 0.304312 0.460042 0.908267 0.185855 0.927030 -0.176765 1.203969 -2.198118 0.164037 1.093248 -0.515355 1.300653 -0.379058 -0.509089 0.749842 0.612308 0.698869 
平 0.585161 -0.419076 -0.330386 0.119070 0.585906 -0.328443 -0.382642 -0.345453 1.151538 -0.208293 0.387895 0.298421 0.230614 -0.429480 0.637325 0.050911 0.196555 -0.327709 -0.037659 -0.126525 -0.317923 -1.037133 0.343161 -0.870213 0.468499 1.140302 -0.063138 0.060864 -0.896213 -0.532394 0.090052 1.028811 -0.130571 0.040323 -0.381199 -0.285525 0.067802 0.678329 0.665659 1.629184 0.969877 -0.485371 -0.544660 0.272087 0.581568 -1.273538 -0.121393 -0.082691 0.621145 -1.264860 
设 -0.920413 -1.055582 -0.361195 0.061187 1.148958 1.107995 0.182736 -0.155728 0.565279 0.061690 0.884178 -1.024105 1.180034 0.901722 -1.527771 -0.122045 0.078130 0.438004 -0.102995 -1.861003 0.335063 -0.459813 -1.728005 1.135379 0.080368 2.009451 -0.238265 0.425389 1.211016 1.123381 1.647899 2.414287 -0.057466 0.503498 -0.035958 0.313226 0.683385 -0.544519 0.497758 2.145622 0.631977 -0.790612 1.314894 0.867437 1.048049 -0.204860 0.187662 -0.508212 -0.198348 0.764133 
相 -0.496712 0.527900 0.287394 -0.135912 0.822654 0.120268 0.384631 0.249083 -0.144771 0.292377 0.196575 -0.845758 -0.078539 -0.233311 -0.486794 -0.246109 -0.466882 0.350522 -0.041492 -0.157456 -1.073473 -0.549654 0.172071 -0.541746 0.037084 0.072938 0.917301 -0.238572 -0.789358 -0.225641 -0.168548 0.065122 -0.304395 0.378931 1.542049 -0.698179 0.260430 0.345968 -0.014392 -1.354864 -0.541727 -0.595679 -0.767865 0.436525 0.074146 -0.531754 -0.146503 -0.170300 0.482759 -0.768277 
因 0.544111 0.205089 -0.115800 0.949520 -0.132463 0.508629 -0.435602 -0.864492 -0.644770 0.350615 -0.021024 0.399763 -0.629842 0.032512 -0.315219 -0.730217 -0.117703 0.725429 -0.361598 -0.787643 -0.905052 -0.161141 0.072257 -0.264450 -0.056815 -0.229510 0.181667 -0.355376 0.115881 -0.778490 -0.811099 -0.112931 0.058131 -0.235829 0.557382 0.808022 -0.007821 0.243478 0.521728 -0.336367 -0.322167 0.121247 -0.748620 0.484073 -0.827636 -0.428403 0.263464 -0.584785 0.174668 -0.135657 
资 0.225006 -0.110719 0.495192 -0.839830 0.970933 0.337004 -0.851296 -0.909602 2.416877 -0.953291 1.220689 -0.536780 0.091840 0.456734 -0.665727 -0.230171 -0.780203 -0.204332 -0.383895 0.681137 -1.465572 -2.045676 -0.975153 0.943769 1.063528 1.572185 1.110294 0.661648 1.309444 -0.088934 0.201012 -0.903962 0.420944 0.321881 0.878379 0.897094 -0.252527 1.010706 0.400234 1.395470 -1.142102 -0.830336 -0.400684 -0.852417 2.872141 0.909983 -0.267937 0.529879 1.207722 1.043006 
门 -0.463580 0.477245 0.440717 0.133463 0.218660 0.802260 0.214456 0.107078 -0.169024 0.764043 0.135109 -0.645835 2.075833 0.772144 -0.547517 0.732216 0.199447 -1.131718 0.210801 -0.766289 0.391549 -0.698955 -0.128723 0.412566 0.234842 0.253571 -0.210261 0.690790 -0.546777 -0.150270 -0.569505 -0.394932 0.244223 -0.259937 -0.207734 -1.030621 -0.486721 -0.147207 0.005228 -0.105098 -0.006338 -1.072346 0.484560 0.151627 0.096530 -0.401559 -0.972828 -0.962866 -0.003837 -0.215301 
老 0.805131 0.715486 0.067864 -1.037365 -0.389434 0.916916 -0.183682 -0.341646 -0.107982 -0.146133 1.062174 1.264407 0.444093 0.119998 1.228130 0.047431 -0.577779 -0.566125 -0.362581 0.398395 0.959699 0.590599 -0.190728 0.198537 -0.075482 0.065697 0.358010 -1.174720 -0.334018 0.302372 0.501526 0.222461 -1.485529 0.759694 -0.880014 1.005949 -1.417364 -0.217955 -0.195709 0.042932 -0.562058 -0.197400 1.009711 0.793441 0.604439 0.420380 0.090112 0.086125 -0.589573 -1.125259 
院 0.912421 -1.400854 0.791301 0.856322 -0.098721 0.634461 -1.047389 1.262392 0.017390 0.371492 1.331660 0.607114 -0.373653 -0.240350 1.781770 0.230739 0.579627 0.125525 -0.339961 0.134255 1.982108 0.175464 0.626585 0.354461 0.649572 0.785841 -0.143214 -0.806553 -0.745584 1.100725 -1.542988 -1.515992 -0.098445 0.647456 -0.395794 -0.547062 -0.499806 0.039473 -0.102606 0.512478 -0.874581 -1.835481 0.448028 2.378835 0.508734 -1.712733 -0.344685 0.387535 -0.832430 0.342961 
如 -0.025614 0.922153 -0.188702 0.381510 -0.242952 -0.644380 -0.194657 -0.779629 0.357232 0.930200 0.318745 0.646058 -0.367729 0.034617 0.780141 -1.183656 0.044053 0.656220 -0.362497 -0.504058 -0.838380 -0.371435 -0.528797 -1.550799 0.522099 0.278215 -0.751942 0.013616 -0.894608 -0.756398 -0.332863 -0.353097 0.485761 -0.286142 1.555596 0.743878 -0.488717 -0.451955 0.535759 0.158232 0.024473 0.582294 -0.558493 -0.015964 -0.738480 -0.097004 0.526609 -1.160015 0.042021 0.501806 
文 -0.050911 -1.276907 -0.897526 -0.131342 -0.642280 -0.079573 0.075661 0.232650 -0.836163 0.028433 0.170861 -0.240581 -0.411067 -0.405765 1.930969 0.454769 -0.365705 -0.358185 0.775379 0.231461 0.498633 0.468688 -1.104653 0.376154 -0.360697 0.475721 -0.013652 1.164930 -0.214999 0.104220 1.416914 0.505043 -0.496099 -0.230879 0.337899 0.729665 -0.152806 0.420157 1.899152 -0.152958 0.489143 -1.040066 -0.036270 -0.427810 0.987344 -0.282397 0.522879 -0.013332 -0.114071 0.963011 
题 0.947415 -0.453405 -0.431502 -0.097754 0.466058 -0.524639 -0.266807 -1.492555 -2.480305 2.074575 1.034807 -0.004015 -0.539971 -0.064159 -0.031447 -0.607090 1.990976 -0.143001 -0.436043 -1.345796 -1.384200 -1.208900 -0.759272 0.618878 -0.151192 -0.434481 0.053059 -0.696967 -1.103209 -0.780702 1.459518 -0.261323 -0.475858 0.160207 0.768512 0.547567 0.821416 -1.304574 -0.336818 0.386932 0.637658 0.163414 -1.570982 0.436232 0.532936 0.424201 0.233637 -0.366493 -0.061334 0.412981 
北 0.675734 0.239192 -0.632341 -0.575002 -0.858592 0.456346 -1.380581 0.265302 0.167490 -0.553406 0.603888 -1.141992 0.218030 -1.130252 -0.753707 0.118874 1.059959 1.444466 1.770885 -0.720722 0.063860 -0.512342 0.084925 0.545669 0.821444 0.845372 -1.308567 1.628999 0.017003 -0.212637 -1.420129 1.155927 -0.011090 0.127926 -0.811906 -0.564433 0.790906 0.518407 -1.134320 0.870588 0.746308 -0.464155 0.805401 -0.045703 -0.061990 -2.600969 -1.348089 -0.619351 -0.568202 0.972219 
手 -1.010142 -0.418415 1.321172 0.604493 -1.045772 -0.129979 0.567985 -0.044968 1.360708 -0.293070 0.834544 1.405303 -0.137685 0.740968 -0.181815 0.339782 -0.897177 -0.834193 -0.070824 -0.201674 0.622700 0.049196 -0.704652 -1.567772 0.849704 -1.078800 0.386532 -0.871314 -0.146328 -0.355910 0.536446 -0.624826 0.140620 1.077725 0.206449 -1.294877 0.535575 0.125743 0.116746 -0.311846 -0.155453 -0.088935 -0.238905 -0.325305 -1.105008 0.748613 -0.839355 -0.131849 1.182960 -0.153847 
看 -0.099663 0.823664 -0.122716 -0.221142 -0.147944 0.116797 -0.292549 -0.240352 -0.263742 0.660654 0.391232 0.595174 -0.030052 0.659867 0.667182 -0.816021 0.227184 0.574738 0.473803 0.183839 0.015779 0.039316 -0.479865 -0.769682 0.335940 -0.968770 -0.126518 0.114013 -1.342165 -0.386185 0.280344 0.026781 0.280101 0.718911 -0.938816 0.413228 -0.660125 -0.298094 -0.435089 -0.926654 -0.340011 -0.464869 -0.548299 -0.166771 -1.067799 0.781207 -0.192182 -0.082351 -0.730672 -0.581383 
水 -0.336037 0.924860 -0.101547 -0.026632 0.249901 0.352436 -0.189820 -0.295423 0.160300 -0.102305 0.368611 0.427053 -0.183276 0.668509 0.186754 -0.220540 0.140786 0.535050 -0.243257 0.012999 -0.478127 -0.934413 -0.834352 -0.507459 0.213081 1.661764 -0.171378 -0.091307 1.487192 -0.125923 -0.561128 0.138278 0.619881 -0.147317 -0.731674 1.058508 -0.297104 0.078315 0.244208 2.353706 0.945471 -0.652075 -0.722372 -0.557309 -0.185219 -0.731182 -1.274486 -0.612883 0.211834 -0.606132 
意 -0.480940 0.014933 -1.685591 -0.768872 0.242092 -0.840148 -0.841297 -1.187484 -0.638587 0.504839 -1.544049 -0.444576 0.703655 0.770331 0.144177 -1.632831 -0.816998 1.073184 0.514677 -0.019666 0.339572 0.351981 -0.235611 -0.765162 -0.737742 0.223720 0.420191 -1.294130 -0.205770 -0.425595 0.221484 0.575138 0.647430 0.814201 1.642825 -0.254453 0.409647 0.118321 -0.295557 -0.501017 -0.113903 -0.436038 -0.475471 -0.565461 0.856486 -0.072659 1.191515 0.114259 -1.107575 -0.411694 
品 -1.050469 -0.326318 0.164823 -0.153522 1.835578 1.189093 -0.945030 -1.147262 -0.503997 -2.323364 0.809989 0.146095 -0.735904 0.229818 -0.282765 -0.375341 -0.637227 -1.735451 0.823364 0.363006 0.511017 0.513153 -1.610650 0.218544 0.296439 0.014105 0.577928 -1.169923 -0.749738 -0.442159 0.759102 -1.201151 -0.359739 -2.054250 -0.080332 0.578439 0.081814 -1.197897 -0.220388 0.649012 -1.019057 -0.861627 -0.924775 0.050886 -0.221016 -0.378024 0.222802 0.231880 1.740011 2.429828 
交 -0.212181 0.792815 0.846679 -0.627890 0.169344 0.946994 -0.031899 0.188955 -0.564412 -0.503840 0.278654 -1.449401 1.655917 -0.681459 -0.621462 0.346756 -0.436170 0.009673 0.178311 0.083788 -0.065670 -0.367162 0.783327 0.812644 -0.094283 0.330303 0.477050 1.135892 0.095990 -0.358184 -0.600739 0.274582 0.547368 -0.218585 0.583365 -2.314968 0.163743 0.486641 0.382662 0.455850 -1.189603 -0.216473 0.321983 0.016099 -0.437774 0.247234 0.026596 -0.809315 0.108440 -0.714471 
期 -0.770263 -0.205273 -0.424849 -0.017201 0.424500 -0.224386 -0.521090 -0.581569 -0.391989 -0.436178 0.167627 0.962540 0.280950 -0.076983 -0.058707 -0.128268 0.705708 0.297218 0.661781 -0.419448 -1.550870 -0.346372 0.424857 0.025761 0.233350 0.552428 -0.089776 0.299250 0.644618 0.726526 -1.408982 0.613830 -0.109880 -0.338163 -0.385278 -0.400662 0.621037 0.270874 -0.534956 -0.928355 0.732504 0.482226 0.146626 1.426194 -0.568442 -0.044936 0.331544 -0.615421 1.072946 -0.311339 
第 -0.368836 -0.755901 0.304258 0.792668 0.477242 -0.418657 -0.496366 1.803911 -0.147979 0.266438 0.183751 1.479738 0.012412 -1.052067 -0.735284 0.576711 0.957447 0.318102 0.469841 0.092871 -0.371626 0.838876 0.110977 0.336873 1.497607 -0.083275 0.722268 -0.201737 -0.019703 1.756298 1.766535 0.054493 -0.571487 -0.614756 -0.489974 -0.519811 0.163997 0.423375 -1.353405 -1.163138 0.504936 0.986945 0.960365 -0.557063 -0.501186 -1.351156 0.216481 -1.412734 0.491970 -0.680525 
城 -0.118915 0.782405 -0.467703 -0.329951 -0.062601 1.669233 -0.304446 0.390646 0.510854 0.035932 0.301261 -1.222446 0.458132 -0.291449 1.059568 0.640474 0.466046 0.860388 -0.377296 -0.585692 0.686283 -1.339682 -1.079954 0.392738 -0.336499 1.461196 -0.745718 0.638860 0.595701 -0.745320 1.337731 0.787970 -0.464788 -0.379588 -1.134790 0.329257 -0.587793 -1.213550 -0.258670 1.269088 -0.387709 -0.788927 0.455205 0.207499 0.033226 -2.362162 0.472969 -1.410301 -0.266234 0.440061 
问 0.721661 -0.135028 -0.294818 -0.697316 0.354772 -0.048634 -0.846844 0.822797 -1.268326 1.894201 0.187567 -0.631064 1.772834 0.331019 2.102055 -1.415846 1.068918 -1.374075 -0.901203 -0.707305 -1.282246 -0.766066 0.782871 1.247196 -0.130765 -1.038107 -0.399355 -1.668164 -0.332931 -1.194941 1.109861 -0.671426 -0.268243 0.057807 0.772253 0.213713 0.172116 -1.428566 -0.666809 -0.041266 0.339761 -1.349773 -0.528895 -0.407581 -0.345998 1.521122 0.139541 -1.077623 0.191309 0.045664 
然 0.093530 -0.917579 0.419903 0.344541 -0.094843 1.134181 -1.455110 -0.169208 0.616471 0.198802 0.574740 -0.308627 -1.004349 0.516783 -1.087084 -0.019053 -1.349263 2.220319 -0.437582 1.388518 -0.493091 -1.060542 1.508458 -2.566154 -0.449497 -0.950389 -0.005741 0.640856 -0.877047 0.929371 -0.266495 0.335147 -1.288177 -0.336288 -0.543218 -0.027387 0.371790 2.185504 -0.731788 0.661138 -1.291443 -0.229069 -1.829772 0.067425 -0.486569 0.479358 0.488132 0.181347 -1.310260 0.613944 
调 0.227572 0.223025 0.513385 0.037082 1.220660 -0.180270 -0.718202 -0.321559 -0.339978 1.412077 0.253793 -0.652547 0.953380 -1.061001 -0.840169 0.087164 0.260884 -0.519452 -1.789158 0.931687 -0.966766 -1.277322 -0.715589 -0.044982 0.327885 0.464080 0.174041 0.290198 -0.859480 0.736115 -0.433415 -1.062051 0.183564 -0.613304 0.680906 -0.726541 0.179252 0.399929 0.713272 0.357415 2.116918 -1.304164 0.233790 1.066483 0.441886 -0.208076 -0.131148 -0.169719 1.201848 -0.979927 
管 -0.549735 -0.548999 0.486744 -0.165834 1.682801 2.203934 -0.011089 0.248301 -0.089970 0.495835 -0.147424 -0.059385 0.331255 -0.944390 -0.784975 0.523185 -0.274686 -0.479612 -0.010882 -0.888684 -0.130464 0.038712 -1.266789 0.538053 -0.131139 1.006471 0.402655 0.682934 0.203685 -0.333338 -0.856524 0.132518 -0.667437 -0.035102 0.597185 -1.525173 -0.755279 -0.078568 0.505771 1.450979 -0.201221 -2.351503 -0.286263 -0.139508 0.027545 0.681940 -1.011760 0.444242 -0.047787 0.591860 
很 -0.044348 0.983717 -0.185104 -0.341502 0.069583 0.620894 -0.123733 -0.570077 -0.441931 0.355166 0.199269 -0.033337 -0.213135 0.386582 0.803261 -1.077583 -0.963623 1.249602 0.362299 -0.530425 -0.406230 0.021631 0.370031 -0.544436 -0.006563 -0.428753 -0.387197 -0.589494 -0.957566 -0.252996 -0.434400 0.421846 0.018986 0.124015 -0.355024 0.533447 -0.302118 0.620549 -0.197027 -0.249114 0.263425 0.456521 -0.988146 -0.676274 -0.473821 0.775756 0.598665 -0.106511 0.016252 -0.593144 
身 0.662495 0.521904 -0.300172 -0.440390 -0.656828 0.679313 0.294990 -0.435660 -0.478506 -0.991123 -0.634809 0.613936 -0.476438 1.124389 -0.328896 -0.695160 -0.209262 -0.551830 -0.347799 -0.783739 -0.139115 0.196396 -0.128116 -1.335575 0.255590 -0.246101 0.337957 -0.113435 -0.708787 0.588714 0.246642 -0.584614 0.159664 0.225797 0.228390 -0.651834 -0.139494 0.710487 0.659530 -0.838613 -0.501292 -0.492275 -0.132809 -0.019785 -0.340450 -0.299536 0.392643 0.544404 -0.135394 -0.450996 
